1.312625690684168456e+00
8.930110494818502831e-01
1.323113989737861429e+00
-2.663154173021118787e+00
1.056970985813971531e+00
-6.439375301384089312e-01
-1.465191311985721390e+00
4.834315123557527683e-01
8.976141968741150334e-01
-4.417128351281075505e-01
-7.272977832669719200e-01
1.686434060466474705e+00
6.097031625514737208e-01
-4.586032996717825244e-02
1.883495544188709347e+00
-2.783802271485498747e-01
-1.027935850479092750e+00
-7.599198980190875474e-01
-8.571552583623456845e-02
1.948020445057296657e+00
3.787103176163402196e-01
1.238182183837270162e-01
2.407577413531679866e+00
-4.373019428861357749e-01
-1.010554910526279437e+00
-9.667054312162394192e-01
-1.243715623196588682e+00
-4.016442570257762190e-01
1.544931025572172656e+00
-6.721928502104939085e-01
-4.199260539330826880e-01
-8.744873383385746157e-01
-2.813546771640310085e-01
-1.476964379965590157e-01
1.694504265542189081e-01
-3.224370964325472960e-02
5.924968670512316127e-01
2.876805596727531888e-01
-2.021544734594566517e+00
9.164096747633131423e-01
5.590262256432926291e-01
4.449423428651819168e-01
5.082683870892981126e-01
4.953901359474680577e-01
-6.712523978938438329e-01
-1.411217708056467401e+00
6.671776375710990470e-01
2.708439494445884499e-01
-8.434723879857560780e-01
-2.334423131530429796e+00
7.002243849907996420e-01
2.501114132614251084e-01
3.089884691035329478e-01
1.108303383374988016e+00
1.221421876133601314e+00
8.308279387539864169e-01
-1.978271177144536930e+00
2.776349204457628228e-01
3.324583765642526445e-01
-4.662670595194882694e-01
1.520081898588934832e+00
1.714138299669737631e+00
-1.007420352370912986e-01
6.858243697003139072e-01
-2.128096746336437750e+00
-1.144237605861019969e+00
-2.968548531425567807e-02
-7.906573380611654489e-01
7.326144708516253434e-01
1.989080700216325548e+00
-2.656465395526156903e-01
-9.357783067995771586e-02
-1.605573084439255060e+00
7.804888715577658065e-01
1.128969358374613208e+00
2.089606241742146819e-01
-1.845423358848187201e+00
-9.352206313163929918e-01
-3.081617367730419277e-01
-4.190928836878003438e-01
1.228323566740127548e+00
-9.054590921352511090e-01
-7.748982946794960025e-01
-3.447154296077912239e-01
1.549028057643157874e+00
-1.098619031535153612e+00
5.894334157044361922e-01
6.027574976381231409e-01
-7.381281508222380383e-01
-1.435165868848808923e-01
-7.182100829483654136e-01
8.229005243103411707e-03
2.769031010296455486e-01
1.193202498197176498e+00
3.017157454291784502e-01
1.865872360511851985e-02
2.564219463588344738e-01
-5.118493875897096590e-01
-1.356204092475775003e+00
3.199226036908539017e-01
-4.310650798352785307e-01
-1.382198660663159995e+00
9.215344126277564829e-01
1.328543090680017746e+00
-2.415354279174511287e+00
-1.931818218479992300e-01
1.755373338621628809e+00
-8.846103261321071054e-01
5.442927603707825579e-01
-5.917794722454255973e-02
-1.447090040029678448e+00
1.073936479590348769e+00
-4.509548143885034888e-01
-3.735726134042939295e-01
-1.685917670626117193e+00
-7.743796907364460316e-03
7.342155053311187896e-01
-1.163310573523173991e-01
-2.256308442160275263e+00
1.693872959947357315e-01
-1.181013570437016602e+00
-6.377357614081697879e-01
6.977597344053456663e-01
-5.157640418676395083e-02
2.360251141176201439e-01
-2.880079171649175263e-01
1.642227307023414129e+00
-2.114511220996594609e+00
-1.578541639409481334e+00
-1.459376207968789307e+00
-1.635466881338372147e+00
2.673205567683550887e-01
3.618583023133020715e-01
6.091527294775787027e-01
-9.337814748956991817e-01
-1.679554642897202132e+00
-1.155860664692182294e+00
-1.314014986175246147e+00
9.600163070307226043e-01
-1.311720337717259266e-01
4.784806060684885787e-01
-6.483844331948972473e-01
-2.423077867037187472e-01
4.852954049224578736e-01
1.830828553399775238e+00
-9.468552046090416008e-01
6.962646020797126356e-01
9.962777597595237067e-01
4.914216031289058151e-01
-2.075237603139627129e+00
-1.157549939830827324e+00
-1.307414250076483819e+00
9.814651720537236335e-01
-1.739503168920194298e+00
-1.184809702039916646e+00
-6.627254275361182945e-01
-1.863695073324302953e+00
-6.575345287479885670e-01
1.610928348427304480e+00
-8.333092461934915596e-01
-9.872243560753004576e-01
1.279840414386452574e+00
-1.327923487144131443e+00
-1.008797811883972217e+00
-9.077449597033351303e-01
9.895110957290165210e-01
2.766977129457204310e-01
7.869636395934753725e-01
-1.310465483442441403e+00
-1.335535016941395758e+00
-3.192736226569106717e-02
-1.643853707360485750e+00
5.585992188174176976e-01
1.031500461355305376e+00
-9.083246003154965553e-01
-3.336335990055275813e-01
-5.035872619611153622e-01
8.163707415760167452e-01
1.771464158189624827e-01
7.757797101027215092e-01
-9.447078301908943265e-01
3.357383379242813715e-01
1.180338170861501057e+00
2.515929615977956502e-01
3.252372698081248958e-02
-6.391183747596970374e-03
5.459556138502926759e-01
1.832649924769368110e-01
5.223973950015901035e-01
8.581619220925293945e-01
-1.895366118871792738e+00
-1.476971612830955682e-01
-8.976806820451098679e-01
-1.575264732694575454e+00
1.362683690437603401e+00
-7.721447734732304891e-02
-5.252970250657932327e-01
-8.274133391332986198e-01
4.165122329885554420e-01
1.620878421435390182e+00
6.127123126372677753e-01
1.477828825917183453e+00
8.161383460260055456e-01
1.683679495100534329e-01
2.508693783571654734e+00
1.141888360581051698e+00
1.782378667491059332e+00
-2.149628022162505037e+00
8.147522385280223656e-01
-2.024960969757030882e-01
-3.408465704917506556e-01
-1.237956311184253755e+00
-7.825172582611141792e-01
-1.302927789702180927e+00
-2.174501254404473394e-01
2.923235244113969733e-01
-1.452143094536366030e+00
-1.488462009344514891e+00
1.156905339106262032e+00
-1.458308315799025534e+00
2.424529326465534762e+00
-1.740788008576401591e+00
-1.638812442319893758e+00
2.618223021577828491e-01
-4.299648245013654169e-01
3.618302614033452880e-01
-2.606484112148944043e-01
-3.728245734087203278e-01
-1.595768476975525235e-02
5.885746350437165431e-01
-7.250316835683426678e-03
-4.224815525267495708e-01
8.578491825995064879e-01
2.020645765590703136e-01
-1.228466685178052575e+00
-4.450042522505728293e-01
-1.163597921777529409e+00
4.592189048727486345e-01
1.769400997495469863e+00
-8.878044545161854761e-02
-3.192122955428705611e-01
8.543654596181446959e-01
1.052117593821982000e+00
3.476707337338599824e-01
2.805546045097390695e-01
-7.277763270074892876e-01
-1.875115574162324883e+00
1.354471350046750233e+00
8.129806749743554439e-01
-7.522928716157613327e-02
2.432050573747781108e+00
-9.084440972183470686e-01
-8.247196840414268149e-01
6.563099772676910248e-01
-1.111803242269778780e+00
9.668202251061883690e-01
-6.358388978083870935e-01
6.878431566478075965e-01
-1.634989896279130106e-01
-4.089143097848186859e-01
7.805469084744797170e-01
-9.141679066145713684e-01
-8.662487885937564247e-01
4.197692858025344753e-01
1.628017048703575220e+00
-1.372556392293704741e+00
-2.028859371743563678e+00
5.906441102848237756e-01
-1.104924681422306820e+00
5.697775814343407630e-01
-1.598025945170671869e-01
-1.482798128492873069e+00
1.380677659291281056e+00
-1.790949931142801432e+00
-4.577468905584082259e-01
-1.263774517110795026e+00
1.372457456959478017e-01
-1.243759262467670212e-01
-1.477720376885182318e+00
1.239437471746716035e+00
2.543395951371359986e-01
-1.256392167610303368e+00
-1.088904417212430031e+00
1.107692563263607433e+00
3.279182480132751265e-01
8.138126343033056376e-01
-1.023845650950318431e+00
1.551722581367328102e+00
6.179108451440162852e-01
6.004232220363140415e-01
4.381227924250651329e-01
1.660710984896482501e+00
4.906025615375153581e-01
4.953223791904420303e-01
-1.726258117272065906e-01
-1.021761107303546856e+00
-4.707977895315618722e-01
-4.175120947089797641e-01
1.008619270671987644e+00
-8.391649138129801955e-01
-8.230662807425342953e-01
9.252670532594667874e-01
1.382182279307132999e+00
-2.006571467807960918e+00
1.674807277427118990e+00
1.627477138462610107e+00
-1.370934997010813561e+00
-1.121962239680342144e+00
1.858662513326723165e-01
-2.022618587958676661e-01
-2.246978469353824170e+00
6.958575570180083325e-01
-2.261002366297424626e-01
4.411648185372786246e-01
-3.229992677393389022e-01
-9.544102783628466424e-01
-1.100965379975174629e+00
9.939103334402447920e-02
6.400756034247534476e-01
-1.151620060872704965e+00
8.460846137056539096e-01
9.572522555683206091e-01
1.218797574436371933e+00
-4.227212670074346201e-01
-7.238947549992971187e-01
-7.617843774034828153e-01
7.866736184514201424e-01
-2.979300850253428432e-02
9.429727497798989777e-01
-1.982387000628908491e-01
1.486925923994014243e+00
-2.231745384179130820e+00
-5.548339316418628500e-03
2.352222899243773258e-01
4.945229815802957840e-01
6.931558423186955364e-01
1.170456861461697917e+00
-1.281988881148595549e+00
-6.411683223207158555e-01
-9.619696113392510739e-01
-4.981638037977823008e-01
1.510790403679541927e-01
6.854406157123863474e-01
-2.201043007800041473e-01
1.207064149200846037e+00
-1.561703232854092294e+00
1.130020372351652869e+00
-4.520458847288452153e-01
2.646989036391663719e-01
1.242923295679587259e+00
-9.490797103022280412e-01
8.121504231765701576e-01
-9.806717387996123358e-01
1.197920555013979094e+00
1.137530131577300790e-01
5.296882652121582824e-01
3.716633990596636683e-01
-1.973005658526175154e-01
-2.594464216110526245e+00
8.348352869670359055e-01
-1.874152755639197088e-01
-6.360261943049418942e-01
-6.658788939690567510e-01
-2.435672719231916916e-01
-1.167083422983437868e-01
-4.963362589769588773e-01
7.830297951151170555e-01
1.269301597923978342e+00
-6.109466805941830003e-01
-1.484285786078834990e-01
-1.654258155860625301e+00
5.380897879100869641e-02
5.855908042498750854e-01
2.197799561387724365e-01
-1.212018631060272300e+00
-1.850075390714805701e-01
-5.336657186845830680e-02
2.947987058525894932e-01
-7.165530091667966506e-01
-9.247009867491891022e-01
3.956710505958737079e-01
-6.183532145468098040e-01
2.538671391984416714e-01
-4.899336958907755668e-01
2.473140142290234600e+00
1.189096675798262837e+00
6.583718619599260302e-01
1.037152716993513524e+00
1.848374030488639796e-01
2.915569308885287425e-01
-1.706414155631952090e+00
8.929534820186815769e-02
6.058047696565774798e-01
7.548043267270114765e-01
-1.861105216223905678e+00
-1.373493576844324882e-01
-7.416365368885645681e-01
1.185323437381022416e+00
-5.115272520199186657e-01
9.546463436761061239e-01
7.659132786223536993e-01
-8.077566303597788488e-01
-1.222719619892155496e+00
2.622866870312877019e+00
1.239097136678498856e+00
-8.923336668834646046e-01
5.895714200400240523e-01
3.557314331963480347e-01
4.651182749844651187e-01
-1.599761568642775744e-01
2.038261634678332490e-01
1.259920158252133826e-01
-1.228214353325935981e+00
-6.625910918663402427e-01
3.477666936012140386e-01
8.021771509669457512e-01
7.150357765837190849e-01
-1.360138009804056081e+00
-8.083183859978561314e-02
1.804419281857864377e+00
1.435457288417675059e+00
1.201670146902593439e+00
-6.510156967566481656e-01
5.547296384049182905e-01
-2.744930459165895731e-01
1.376327516263143869e+00
-1.909910489955332288e-02
5.042033180813272342e-01
-9.224731748493381067e-02
-1.201789995981388109e-01
1.904305323351003845e-02
1.491526473942018094e-01
9.069426101878572122e-02
-2.788878446971046809e+00
-1.984836359911177572e+00
-2.864840774351484765e+00
4.492897602043915972e-01
-8.462918113203962145e-01
7.854123760315077918e-02
-4.657798483875980750e-02
-1.932783398841640410e-01
4.871766279065972149e-01
4.433270582881018163e-01
-9.711071566449575032e-01
3.330551295593774386e-01
1.061985237060703691e+00
3.311140462820030134e-02
1.221366213647678167e+00
-5.166399686493616805e-01
-1.419222039542343383e+00
1.624558817782782105e+00
-3.174965912300488358e-02
-1.226855499322582199e+00
-4.893327687249150459e-01
-1.006124717775251698e+00
6.180463285374123705e-01
-3.686813227556444139e-01
2.327282254425259433e-01
-2.572704290407616945e+00
6.288794026324182607e-01
9.667812379820034385e-01
-8.258177294604082119e-01
5.523067646599928437e-01
-1.332407501334659239e+00
4.888629176907281493e-01
5.480052568540099145e-01
-1.560670363329730026e-01
6.183773382852811862e-01
-6.337036241312574703e-01
-1.784642061860314266e+00
-7.744084134085880144e-01
-1.190249888866044825e-01
-4.690958560145891409e-02
5.903539772409234221e-01
-5.751609944647112505e-01
6.550296172334068023e-01
6.938587055480810450e-01
3.903553060819242582e-01
-1.346430810149859658e+00
1.755163337922862832e+00
6.118574935492933076e-01
-7.616508780555238944e-01
3.528588279226323454e-01
4.888389327084204372e-01
-1.066633627235556769e+00
4.116455272795434550e-01
-2.783207086197461155e-01
5.444618041483768600e-01
7.395767022283000758e-01
-2.259860509589679267e-01
4.122389532036638965e-02
-1.135701646014728006e+00
1.088536186386686477e+00
-1.058661508451154976e-01
1.221952317323281301e-01
-1.402987379012570646e+00
-1.212627128509976338e+00
-3.453225841056121737e-01
-9.529549671242081299e-01
-3.227310157946004510e-01
5.686486526904952488e-01
4.213374895739092213e-02
-9.007090873905817530e-01
5.429811318370866280e-01
8.646532648739115867e-01
-1.116286000863107919e+00
-8.939917120402058881e-01
-7.453823518147494331e-01
1.047962385067117808e+00
1.735434340959630006e+00
6.478027561452104344e-01
-6.705419324601100683e-01
3.739758255384265095e-01
6.928545649225402725e-01
-3.401239366589882129e-01
1.136330862295523936e+00
1.787327346678946050e-01
-2.262793273977650177e-01
-6.827008925913585768e-01
1.611218546531913542e+00
6.130940319505655545e-01
-1.861264524478623561e-01
-5.518499206178029137e-01
1.815883377895289308e-01
9.432148532567314891e-01
7.317631468431099462e-01
-1.538158032283899745e-01
-1.563930873671238952e+00
7.659438352345027123e-01
-4.912365846364240562e-01
-1.116749112896552543e+00
-1.445926123246999540e+00
7.112899092420897906e-01
-5.980713402596588013e-01
2.403631252193277890e-01
7.953570325801144758e-01
3.915137536200226087e-01
3.634734723039225179e-01
4.116683768297277335e-01
9.037833769594162403e-01
1.497022585430914932e+00
7.126588355756777737e-01
1.489959716535862011e+00
-7.825838974501847511e-01
3.803822368360259415e-02
-8.057512611851557205e-01
1.767811805708261019e+00
-1.512481996720891342e+00
-4.572560361462337242e-01
-2.653976108052465976e-01
8.594815281540323371e-01
-5.487401197483693371e-01
3.543396619656632995e-01
7.774755851808983209e-01
-1.202222579158681137e+00
6.861928765689415677e-01
1.319377306764381252e+00
1.037295133639960731e+00
-5.177545974560642250e-01
-1.387248281026286278e+00
-5.781475936439238739e-01
6.189994039119240954e-01
-1.245400029397371267e+00
-4.709184647213249253e-01
-2.405650995548338056e+00
9.103063809337882395e-01
-1.330876980086824091e+00
-1.309619959283337520e+00
1.223531806823613621e+00
1.119317101836256656e+00
-9.888341734590765375e-01
3.211747087532356715e-01
-1.905847126758093979e-01
6.675894695007335011e-01
1.524465544037940656e+00
-2.818233488600018766e-01
-1.320672929125416006e+00
9.645446503178747300e-01
-1.189713363461439855e+00
2.101292295615988515e+00
7.877381592622443307e-01
-4.651805612344837582e-01
-8.867243337564648664e-01
2.365869544946475334e-01
6.076340509552230484e-01
-7.045904832113021321e-01
1.925348123315493432e-01
1.969037326682652744e-01
-1.048262262080783991e+00
-9.949336443116796325e-01
-4.784749849683445078e-02
-7.481236309865612055e-01
2.615879820339974127e-01
9.963114405901396520e-01
3.243044337669381272e-01
-4.082976059295662097e-01
-2.227598200508148774e-01
-5.089075900984882939e-01
6.796275747653889310e-01
1.124088688849348566e-02
1.579682116197300257e+00
-1.659811326983799962e+00
-4.256935765151299011e-01
-8.444288753690422089e-01
-9.937273547639544624e-01
1.454116593569664717e+00
-5.927445053344642112e-01
6.858129908655602458e-01
-1.514182024787704695e+00
2.769669844648144363e-01
8.423702707911777665e-01
7.991870768497354172e-02
6.083734491353197660e-01
-2.380408433153340830e+00
-7.328613714808444868e-02
5.091699446675626017e-01
-1.664924401709684698e+00
6.232282690184101082e-01
-2.849241692250199076e+00
1.740944392029890875e-01
2.114101695133271175e+00
5.359256069555674851e-02
1.388323216113968028e+00
-6.763712189132361496e-01
-9.825620779322535858e-01
-7.966013032775401959e-01
2.388925326315658015e+00
4.750576607164535003e-01
1.554238500229783826e+00
-1.037468334576258533e+00
-1.571524520169197414e+00
-6.274219820165173322e-01
-6.259171382389298877e-02
-3.909272194545589940e-01
-1.111425126865193347e+00
-5.597911732531055118e-02
2.153822630887586020e-01
-7.005567715828047159e-01
-1.466880518642122544e+00
-1.671069624395091990e+00
-7.443814915003745813e-01
-5.600780307875312669e-01
7.288243214583821628e-01
-5.435365181626671260e-01
-1.728999379568890271e+00
8.438633673180342409e-01
2.163698855072522798e-01
-5.100335999996057357e-01
-9.709024827648894407e-01
7.211176582444119854e-01
-4.269657610478382742e-02
6.202006387343197424e-01
-6.487225829421610079e-01
-1.281575503662439663e+00
5.848219419874201019e-02
-2.156525036574876431e-01
-2.315300961168592908e-01
4.130041436955533829e-01
-1.048528190638684299e+00
-9.981608349300523653e-01
1.665712468755178172e-02
-6.072391308222343520e-01
-2.448888040728739723e-01
-1.792004561617581704e+00
-1.405215754299157238e+00
-1.062227147927915727e+00
6.060104362526482769e-01
-3.739318009202298176e-01
1.108213168829039474e-01
1.210046968875387874e+00
-8.188473798536227699e-01
9.342898254323813712e-01
-5.508938720385183618e-01
-1.354562675120635662e+00
-5.951105461756860115e-02
4.544829508793509776e-01
7.580216749068910409e-02
-1.318765597821419888e+00
-7.452465336354259229e-01
-1.385402936277871699e+00
1.824295206445440132e-01
-1.006355351541449172e+00
3.568894104129992639e-01
-8.377088969766155468e-02
-1.371615558449570615e+00
-1.527362739645150125e+00
2.032748286085601236e-02
-1.009895727637325935e+00
-1.462755977050316014e+00
4.952704874319736189e-02
-7.347798388178345963e-01
8.900514259446062892e-01
-4.675095793572994207e-01
1.154148480771760799e+00
-2.766895560417847455e-01
-5.152213698583157225e-02
4.413083477404867727e-01
8.172001073741793631e-01
-7.039485576937776212e-01
3.540737734072561815e-02
-1.127030417568161358e+00
-7.532604996547148657e-01
-2.505331058641555725e-02
-7.777791435034142609e-01
1.992669034955748819e-01
-4.898633733586936212e-01
4.439753852247749211e-02
1.748399902509194526e+00
1.036805525439640885e+00
-1.360420953586576109e+00
-1.283431645736557547e+00
6.970398192350739652e-01
-2.511480054591168631e-01
-1.055169242695414678e+00
-8.465560523116978375e-01
-4.667971432207642102e-01
1.008214319802369988e-02
7.477135411066221371e-01
-2.565328556417224348e+00
-6.856505720950020200e-01
-6.049901320193077497e-02
-1.364462708368792798e+00
8.204158675774243792e-02
-3.505665757823237527e-01
-3.896927234212700375e-01
-5.225850171009498446e-01
8.368236491956618228e-02
-2.086132052813177429e-01
6.536529630065407437e-01
-2.549932112817029917e-01
-7.874739818243112754e-01
7.113552429579000913e-01
-3.398046389295309999e-01
1.276417828407397703e+00
-9.445818742385748701e-01
3.264162754116655685e-01
4.332724257734480999e-01
-7.780584177913492105e-01
-4.035730723246485629e-01
-5.248157049203979740e-01
-7.590802903788914646e-01
4.050351322173364466e-01
-4.141194720979269328e-01
-1.589750839326173226e+00
8.662537667545787412e-02
-1.227346680484771024e-01
-4.309680461243974026e-02
2.559067243303952965e-01
1.557485830854931363e-01
-1.358366805097095398e+00
-4.704237051972261496e-01
4.281370548174274759e-01
-1.524613095528704054e-01
-2.949579964980671432e-01
-3.664136362809028991e-01
-6.465649608666264037e-01
3.426424738480459697e-01
-2.137076648196311712e+00
-9.456099426391100238e-01
-2.990799230541318909e-01
3.512795771867233685e-01
-5.279806126027822843e-01
-3.657204942344056686e-01
-1.797910860694287516e+00
-9.391114791428223363e-01
5.283226567887233660e-01
8.210306980052097803e-01
1.067302641899559257e+00
-1.313563134467997440e+00
-1.105640747223778808e+00
-1.031615141157175231e+00
-1.092251778265017209e-01
-1.038572917800041795e+00
7.438861681909422208e-01
9.769973770480100406e-01
-1.301806927027874927e+00
8.871117985207644940e-01
-9.693886337487260529e-02
2.133603346945052159e-01
3.883557712057616462e-01
-3.958093976649153245e-03
-1.943156277741908966e-01
-5.512792630112817172e-01
-1.137496132661854231e+00
-9.592449534553838530e-01
3.587791318884216984e-01
-3.335468783250769009e-01
-1.061553981248167355e+00
-1.329348370701575743e-01
-1.042990618319084017e+00
-1.243510525677221867e+00
-7.177360196903473932e-01
-8.765302204652749563e-01
-3.000379920626061181e-01
-5.612662697989420080e-01
-2.674653523910429098e-01
4.316113193713592699e-01
-2.443417028061133589e+00
-8.191644094136293353e-01
-2.053687857824848528e+00
2.915425713448413614e+00
5.230012064852204157e-01
9.420247950596986886e-02
-1.011714943262251420e+00
1.162246844504122523e+00
-9.168096970980562643e-01
5.284188771222250169e-01
4.198093474108172685e-01
4.225747316235807516e-02
6.448625448107601910e-02
5.529232031805991765e-01
7.182796643565864114e-01
1.358378588626875383e-01
7.896509627416753441e-01
3.773139098787575696e-01
-5.912199193160139199e-01
-3.769318658977906938e-02
-8.545150802237400089e-01
-4.016142062357775377e-01
8.486951158598618483e-02
-1.213804588723292666e+00
1.004089598876037659e+00
5.683193318207927502e-01
-1.934246229532227135e-01
-7.558520142632265681e-01
-7.541052919539041610e-02
-1.857674574038412629e-01
9.645578863734619590e-01
-1.477956305906118262e+00
2.818315172565293292e-01
-7.760556865197962284e-02
-8.852106576891359824e-01
-6.400072223299176910e-01
4.172114077766257978e-01
7.214222922790116677e-01
3.432081212255688740e-01
5.360303465035295423e-01
8.627058926869628497e-01
-1.348399361491279924e+00
-1.255317201688464612e+00
-2.383444784384946558e-01
-2.812440958504786037e-01
5.386180386409173959e-01
1.021926901829249612e+00
-6.679968283435244736e-01
7.034158477180464386e-01
-1.206555303213974861e+00
2.963683102326953311e-01
-5.194970704985197446e-02
2.557482204691501754e-02
-7.833554231375293719e-01
-2.281388474417676837e-01
-8.369383403761536666e-01
8.419444740801229621e-01
3.197484632440280583e-01
-7.581271423574274804e-02
-4.453037101418601262e-02
-1.592584139760066408e+00
1.922307018008478918e+00
-6.354599048232711933e-01
-3.097174281918632643e-01
1.952345796408600176e+00
-7.911857820361062332e-01
2.173451292752739406e-01
-1.491776928752875098e-01
-8.436648346550466027e-01
2.158035230036711716e-01
7.317614981083374603e-01
2.480319539139639762e+00
-5.598869356333924241e-01
-1.826052249429982732e-01
-1.054670407728579562e+00
1.437937726186066412e+00
-1.901303526753359785e+00
7.011983457238252226e-02
-4.354107841716154947e-01
9.834036527768913460e-01
-1.577357678975496391e+00
-1.883779815556616832e-01
4.012740739978298277e-01
1.739179038018550116e+00
5.531201624731765243e-01
-1.372063890331689295e+00
-3.976541582972583089e-01
-1.582664998391168254e+00
7.676946674305902274e-01
5.985455892510147535e-01
-1.540348220929921741e+00
9.126889013465085132e-02
-8.977057206060530259e-01
-6.781221623904570839e-01
-5.431037172361303789e-01
-2.162929200679237773e+00
1.528261826971222259e+00
-1.955749257344444603e+00
-1.086948187163939011e-01
7.128860941265460216e-01
4.636374758325018663e-01
1.546551715586111930e+00
1.124732317796545145e+00
3.147392418108863055e-01
4.223647442494643522e-01
4.357511501448975422e-02
-6.114265593269035959e-01
1.493353465939429581e-01
7.138072390837491010e-02
5.062191097910474780e-02
9.931302933927267373e-01
-4.477607425835148924e-01
-4.829062680541310049e-01
-2.023453568545900971e+00
-5.646186668363298855e-01
3.077808805023551364e-01
6.836973649108086387e-03
-2.541318918525291792e+00
-5.636843963669094792e-01
-2.136863664879832536e-01
3.067192648814248135e-01
-3.164113796334391826e-01
1.777142554590313228e+00
-3.973630034323299975e-01
4.026976707227029051e-01
-6.270343730912900648e-01
7.758142542466388569e-01
1.025574672477875676e-01
-3.928824065978722135e-01
3.567465897649618745e-01
-7.430100920261064612e-01
-1.511120161279453367e+00
-6.283680976063055201e-01
-7.406589485605512557e-01
-5.949192612884900422e-01
5.032245199158132953e-01
-4.691906528456145087e-01
-1.550454323516585298e+00
5.298484861605973206e-01
1.738883765562563959e-03
-1.644783054937501987e+00
1.775160189213822182e-01
-5.042836475133157803e-01
-1.440122295404904884e+00
-3.239501878383598821e-01
-4.262737872945981943e-02
-5.639460021193842820e-01
-1.384275698040545510e+00
-7.681186340216521469e-01
-1.554006012102866763e-01
1.347521079760063190e+00
-2.323856157349397378e-01
2.943842807108114634e-01
6.522060577390007552e-01
-1.256135875081832776e+00
9.122544931816347832e-04
6.873452091286630372e-01
-5.136771022194891456e-01
1.016226396416226307e-01
2.259959885068784091e-01
-7.220106767136651449e-01
3.055529798247474393e-01
-6.006630287971621573e-01
-1.020818077811800118e+00
-4.028700463264552334e-01
-6.781370900542246782e-02
6.180160142473539731e-02
-1.132573789216934967e+00
-2.591081353321105785e-01
-3.960372944236627453e-03
6.805317908810185612e-01
-7.168076161910069688e-01
-7.989739979739639564e-01
1.356284743364332135e-01
3.651093813932311249e-01
1.641331885433207072e-01
-6.498338963328159634e-01
-1.177650894687601868e+00
-3.908837567238962474e-02
-8.290790152541140101e-02
-1.428090616221973752e+00
-2.153288124289224614e-01
-5.894084850644432105e-01
-7.095670289477694626e-01
-4.299682189305582547e-01
-7.867124411501004444e-02
6.799662035983830011e-01
-1.197956365893346087e+00
-2.027351795728203621e-01
7.617219828970446527e-02
-2.107245959826492820e-01
-3.584993079112230308e-01
-4.313102340318873962e-01
6.366843595504448894e-01
-3.855979892326577563e-01
-1.323927956661395955e-01
-1.238109282059298016e-01
1.999029531187638542e-01
3.049197108431610931e-02
1.048501716240429898e-01
-1.924191310996525184e+00
-4.044188956164065929e-02
-1.906990283895767802e-01
-1.098726876521910922e+00
5.160795411952558975e-01
6.154481740599671014e-02
1.557944361232438679e-01
-6.912472386273015301e-01
-1.516681659634180057e-01
-5.646331859044729368e-02
5.042563676818010432e-01
-2.445299364596061897e-01
-1.194830079593200534e+00
3.764699159050420851e-01
-5.980556044345981537e-01
-2.861863221897667509e-02
-1.808493512629339717e-01
1.286024988377111322e-01
-1.391858185587566965e-01
-2.086082109819014513e-02
8.855902754132185528e-01
-3.410051305541249578e-01
-4.847425948173296750e-01
-4.842724725651738615e-01
1.147857920431033796e-01
-7.402268838078757129e-02
3.130583173091683324e-01
-8.516410531789634364e-01
-1.273410699763544845e-02
1.686422992636733287e-01
1.192627885912304758e-01
4.714405076434107777e-01
2.197355459583404391e-01
-9.264666155367378142e-01
-7.263017730614789169e-01
-1.267368677834406487e-01
-2.472799059334153671e-01
-3.071553335949872565e-01
-6.620776151703855472e-02
7.631762998667293574e-02
-2.996395361557417369e-01
-8.859477463396138175e-01
2.840396403248859891e-01
3.648477393681678893e-01
5.637993991349435907e-01
6.362923309795127935e-02
8.337786781838347760e-01
2.252039309694311708e-01
-1.760186657680771760e-01
1.520723701478558509e-01
-9.087356786430988986e-01
4.158659593714753022e-01
-5.557006107311692755e-01
-1.165772008201623855e+00
-3.273398225403323369e-01
-1.006251961677760709e-01
-5.471574301464243728e-02
-8.284467448596469774e-01
1.394929018343860350e-01
-8.322351839700378728e-02
1.510073721330396357e-01
-1.014862889063833512e-01
-1.586217249606901802e+00
-1.172840593436744072e+00
-1.756030606884435130e+00
2.316577574156453434e-01
-2.005128124799214984e+00
-1.139968080657004085e-01
-6.604272265646124462e-02
3.509330180327819848e-01
-1.322374287446765440e+00
-3.576172954567346518e-01
-3.160983120958704151e-01
6.385604014466981226e-01
-9.856807377511152268e-02
-7.266545502812428170e-01
-5.261915219404529331e-01
-9.904697914784691415e-01
-4.888750128399850237e-01
2.484072987091758555e-01
3.445948405983604856e-01
7.391754714843257190e-01
-1.114473201914095490e+00
4.700400337147166430e-01
1.684746994744432236e+00
7.258943836523810145e-01
-8.586711738363941304e-01
-2.288749889711145347e+00
-6.413538129747393957e-02
7.292717295483742701e-01
-9.231404203679057785e-01
5.700615899033382311e-02
7.941718822709880055e-01
1.968466261848389021e+00
-3.752849049224114136e-02
2.213840078366891839e-01
-7.683025787260575057e-02
-5.582733548204842355e-01
7.785243913021515638e-01
-4.290226700825493927e-02
1.050883877454846127e+00
-7.861886282695020878e-01
6.623117223519109364e-01
-2.571201094954378985e-01
-8.313296259200870786e-01
1.183478045854373883e+00
-3.928453806682814520e-01
9.552365248789218555e-02
-4.008592969717625909e-01
1.401901422058756008e+00
1.217793170813504799e+00
-1.070985062313855707e+00
-1.397879030613616402e+00
-1.691656450059756844e+00
4.510025435451684439e-01
-2.258151451964686363e+00
-4.820747399459937022e-01
-1.290497807107458428e+00
1.500424309578842486e-01
-1.364387763006985388e+00
2.306228722742378057e-01
7.287594510622618094e-01
1.000167814245215059e+00
-1.391236541254978309e+00
-7.348155613544133935e-01
9.350267552164412410e-02
7.121582919050640781e-01
8.245852403701972033e-01
4.598840559195629396e-01
-1.085323398369579806e+00
-9.562910357178338039e-01
2.519711150205862782e-01
-2.608202430948785011e-01
-3.438446448782481735e-01
-9.026673856746018076e-01
-8.803565973470902639e-01
4.271237384823101113e-01
-2.394656392817175877e-02
3.755591054439860743e-01
2.538855517978758081e-01
-9.842045884758249263e-01
-1.546591974850637818e+00
-1.465182977690740573e+00
-1.587925342191781886e-01
-1.485977410117832687e+00
2.794922785597292458e-01
-1.156412939953641444e-01
-8.488278068155890033e-01
-4.457215317121646092e-01
5.766953795108477054e-01
-3.137579784603674593e-01
6.207534046731261190e-01
3.226111334057759072e-01
1.867918400620872665e-01
-3.207371177947126450e-01
9.364520548048107518e-01
3.901522036015458994e-01
1.390655440793956865e+00
-3.423123184847248202e-01
1.581322272572388998e+00
9.422946327715093773e-01
8.276419284615451621e-01
1.080765755351154711e+00
-1.346952306754978013e+00
-1.471692826465572090e-01
1.513480524697809804e+00
-9.489201953392186750e-01
-9.237781786930739925e-01
4.417824423182917237e-01
-1.685064344532162917e+00
1.738846152446535065e+00
1.352343905501195653e+00
-9.364356264008327768e-01
2.657549019435935467e+00
-6.028174197669223799e-01
-6.926337305863347060e-01
6.652786473302583214e-01
1.856998068335680985e-01
-7.218294381649991154e-01
-8.528981280765072226e-01
-1.338240294532422547e+00
5.888094081126549195e-01
-2.707012955955219180e-01
-1.666499287369457960e+00
-1.263636202476582371e+00
3.928093713484963612e-01
-4.560580498722196507e-01
-5.983015164879540437e-01
-5.315752215069182718e-01
3.357947874480927131e-01
9.797405310886329183e-04
-1.260514894671470376e+00
-9.587048259290723573e-01
4.133675619759881736e-01
1.031831667232933292e+00
1.612195910204950178e-01
7.597383704064192278e-02
8.267007362631620948e-01
4.141411620050988729e-01
6.286503272005721232e-01
-7.742045596182367539e-01
9.111827804856120414e-03
-2.447696732543865605e-01
2.994344680650872781e-01
6.554712256288438565e-01
-7.129485366868379415e-02
-4.697377425843757975e-02
-1.715968458834189192e-01
-3.142161231378413633e-01
-2.072977180251393825e-01
-3.796079364005735535e-01
2.271744611556266585e-02
-9.462329165838971878e-01
-3.366297133802707564e-01
-1.194353496249701996e+00
1.638436870989986860e-01
1.330533989488454638e-01
1.011064596236145585e-02
-2.100011457042288698e-01
-3.073351953190662789e-01
-4.595078410035301486e-01
-3.402389886848482953e-02
-2.042717349179768438e-01
-2.153810389954676982e-02
6.541225002268087618e-02
9.144560647054200686e-02
9.038562971219051001e-02
-3.272864295816969027e-01
-7.562263695584137135e-02
1.114759843316816407e-01
-1.148621949867284719e+00
1.985716807760962155e-01
-1.121900664398952197e+00
-6.025911333535530212e-02
-5.452100851740349780e-02
-1.809470973097034030e-01
-8.470869780089343437e-02
2.657464822123642434e-01
-8.067052162358445688e-02
-2.960582265640275268e-01
-1.209035587089361541e-01
-3.935425630445732459e-02
4.710657466303633245e-01
-4.978524562895703109e-02
-6.950048187295344848e-02
1.714211747967147037e-01
1.350610730639125456e-01
-2.493387992366386252e-01
4.391237209714527953e-03
-2.533631083595023203e-01
-1.021649386219250166e+00
1.004640794600370479e-01
-6.221393446567475838e-01
3.221398182984459568e-01
-1.826386321449046668e-01
-5.582055683253026035e-03
-4.600504132717442990e-02
3.200663806121628041e-01
-3.526270098313328827e-01
4.522299958512532303e-02
6.672993715684341076e-01
-6.423723055030354512e-02
-1.919507314398171127e-01
-4.182231109448850681e-01
6.482757365225083612e-02
5.424584497755838286e-02
-1.682576205279102607e-02
-1.439279044909702043e-01
5.728992879701662322e-02
-8.445419445886559462e-02
-9.271456169912857259e-01
5.890333104059688324e-02
-2.110765176691290490e-01
4.330272040514875354e-01
-2.423171266182708450e-01
-2.104313549902610964e-02
6.313779418104484287e-02
-3.995731513750866992e-01
-1.487824245718994548e-02
-1.302898421431770426e-01
1.931665637187437723e-01
7.972290452343648581e-04
-5.015877144686478051e-01
-5.671084532345732621e-01
3.135459659002197419e-02
8.877634430142999911e-03
9.295367528687148440e-02
-1.400316444314640418e-01
4.663745358129123969e-02
-2.485895329224935280e-02
-1.053311461353159117e+00
-1.799794716007087000e-02
-5.346653268858784364e-02
2.716192090524530145e-01
-1.997400709203981939e-01
-1.293774588636235623e-01
2.569401853850277612e-03
3.915366864502928257e-02
-1.612449741053633423e-01
3.854127501741064221e-02
-9.194545771023758807e-01
-5.913540559624222079e-03
-5.070437088995356500e-01
1.547058571220380485e-01
1.138201219979994988e-01
-6.574470746396897380e-02
1.377453042801739247e-01
-3.106449799913419962e-01
1.417887973551779091e-01
-2.410754207614486666e-01
-2.074514819251073394e+00
-2.037832867164775588e-02
-8.704585037385732804e-02
-1.310426363880083933e-01
-1.134798014527906157e-01
-9.845663660954286078e-02
-9.788017160681398987e-02
2.292574238053237123e-01
-1.113502914586223316e-02
2.646094190957195419e-02
-1.542414540365603104e-01
-3.638634263107023287e-02
-3.077162271370213475e-01
-1.804716317505082879e-01
-2.289141608272435985e-02
-1.658408539103559676e-01
3.065454210442389305e-02
-5.684329343382529820e-02
-7.503115186231755496e-02
-1.403093003033261676e-01
-8.429680745652042839e-01
4.639039906193010571e-02
8.922506774225482523e-03
9.065423955891924734e-01
1.032146415516245613e-01
-8.948728250519213945e-02
-3.224696055987364418e-01
-3.227918426833529253e-01
4.098683386679547597e-02
-1.581663759681053438e-01
2.635956038707581994e-01
8.322327150351496727e-02
-1.012153507763667637e+00
-1.427810445943591411e+00
-6.464351945634233543e-01
-4.965126717876607865e-01
6.272840275211766237e-01
1.107709433259596477e+00
-1.061308356874770958e-01
-8.433740132515402110e-02
-1.493870337448428565e+00
-7.642566741336359604e-02
4.901987846957275297e-01
3.579675034178074755e-01
7.274203341333227435e-01
-7.136530529681052171e-01
-1.044359378273903127e+00
1.023231042630221022e-01
3.108837597682693674e-02
7.800003052436735307e-04
2.829212837321657403e-01
2.939430170006580162e-02
-1.167957727306316584e-01
2.307859051773986925e-01
-1.753337072870359004e+00
-1.340568604775712325e-01
7.614866912470734661e-01
1.043206313327550844e-01
4.071483073054544266e-01
-1.332024557868655812e+00
-6.461488499343648328e-01
2.059431608628589649e-01
-8.067300429628029290e-01
-1.739871717357619918e+00
-1.773472192105524758e+00
-7.770772361085710456e-01
7.503729356353566748e-01
-1.947068036591091955e-01
-1.199969137158985177e-01
9.353433060521958442e-01
1.398198268289373658e+00
-9.457330021354808103e-02
-1.360973536779939597e+00
-6.648995979931472677e-02
7.483816292387428515e-01
1.455120706723315616e+00
-9.456967746603693881e-01
-9.275946058192127142e-01
-2.100291478774239939e-01
-1.145564380171634422e+00
-7.671032482989671442e-01
5.783344911572190217e-01
1.107199654245888176e+00
-3.671033085397494844e-01
1.688457149139344360e-01
1.207555481550519394e+00
-1.435247863006763991e+00
-2.004152338705715852e-01
-3.185207585188649104e-01
-4.354741769649183580e-01
-3.741401453766968199e-01
-6.644704908008877697e-02
-1.428505923316362614e+00
-6.888096201327376100e-01
5.095097568907450691e-01
3.525804412563929846e-01
-9.852851301039817766e-01
-8.321875462676200375e-01
-1.554693646904492299e+00
4.476938698772473663e-02
-5.134697159837517400e-02
-2.705049992467663422e+00
-3.064864992926397691e-01
4.438611693624410770e-01
-6.938187507068347415e-01
3.743013714127785274e-01
9.723784931693622013e-01
2.552092327519490597e-02
-3.692631220137280734e-01
7.893840666194241740e-01
1.120101048671014787e+00
4.788811535449207790e-01
-7.357900387525333208e-02
-9.321636192647775321e-02
-3.900275677643501582e-01
2.347116193321667488e-01
1.419153443425746675e+00
3.331516332151148729e-01
1.454829100527175179e+00
6.957434876765723475e-01
1.162009901267870404e+00
1.158112756881193972e+00
-4.039446033807795877e-01
7.880496797117507723e-01
1.317409968598019399e+00
-1.733145355433136636e-01
1.088510130381155294e+00
-2.618283413523084246e-01
5.081582322940809693e-01
-4.573400914771153514e-01
1.619621423801153925e+00
2.585255698823390458e-01
1.277561750551658104e+00
-2.810445053224031042e-01
-8.147907116152044438e-01
6.637806090357764033e-01
2.652778874483894267e-01
4.739160770069659745e-01
-1.084169839007009584e+00
-1.196704842842892802e-01
-1.264363474473390481e+00
-3.609690061328275079e-01
-5.322169280212851739e-01
-3.953201831116397447e-01
3.065995103236866526e-01
1.181407497135003870e-01
1.992232283015627770e-01
-2.227015396946316061e-01
-3.520820761079791472e-01
1.306841862186861325e-01
-3.217136529483585194e-01
5.752087513894331705e-01
-3.057476493621239660e-02
9.218691299789507632e-01
1.057962932268784018e+00
-2.231195996715807650e-01
2.753550528726809166e-01
-1.146120620462873496e-01
-1.237142020121757974e-01
-4.290940861312804167e-01
3.872005235663037448e-01
-9.842194796302045079e-02
-2.097628899371458688e-01
-3.831243995593070495e-01
-3.927112187936576682e-01
5.910422615445446587e-02
2.131880402032201582e-01
7.698150736690942408e-02
-3.195003050678598133e-01
-1.020243062577235182e+00
-1.634742508806760752e-01
-1.748733047891848705e-02
-2.829509102476054916e-01
-3.812068773498604179e-01
-4.760553632558153780e-01
1.011116615557102610e-01
3.237547373483407737e-03
-1.922615301906242247e-01
8.039495879113341126e-02
5.897269786413977810e-01
-9.320538455963219004e-02
-2.075540248406864408e-01
-5.385237716028125066e-01
4.059825097749989453e-01
4.622209859544190169e-01
-1.570170356249213639e-01
-2.129094891931967992e-02
-6.327261873717944171e-03
3.320910271803070163e-02
-7.994650489073258370e-01
1.429419346699809246e-01
1.294741386733161137e-01
-8.883271069200235348e-02
5.163589796243732710e-01
-1.832860259763165189e-01
1.378353929616645546e-01
4.124356013432266266e-02
-2.462867941098307450e-02
2.103619268066560591e-02
4.013749238789838247e-01
2.755553202024261378e-02
-2.968074545241795037e-01
-2.721879312021124320e-01
5.227334996654645072e-02
-5.872218608860897415e-01
1.442028070712899901e-01
-3.340424827752599968e-02
5.593421744051565309e-02
3.851894197128604563e-02
-4.100391241571343937e-01
4.722639011448041824e-02
2.041230012035277486e-01
2.967938425159313276e-01
-4.279643859379049231e-01
-1.406075036341130902e-01
-6.661621575261006400e-02
-8.495014039438336662e-03
6.894312447763963070e-02
-5.123191060048414014e-02
3.278861046601656559e-01
-2.988227474378828963e-01
6.174659876290953392e-02
-2.209983340281765907e-01
2.621003964066293546e-01
1.868364034383044117e-03
7.397148198235339867e-02
-6.486512323856270801e-02
-2.694683295751011398e-01
-8.414573206208881412e-03
-3.050749426871349756e-01
9.509556408852520848e-02
-3.063883516367664137e-02
2.024598598977845054e-01
2.332571380006393524e-01
-2.540389816696405068e-01
4.344008551136506469e-02
-3.684246233460564124e-02
-2.432137915927206056e-03
-4.091371212900736520e-02
9.273112574911021588e-02
-9.338229611760551219e-02
1.240840562435920336e-01
-2.600138522111337114e-01
-2.906120133004713724e-01
2.699681088476186264e-01
-2.255414273176474874e-02
-7.716765425038173143e-02
5.997490534775160725e-02
-1.237495741791113796e-01
-1.031525247743564910e-01
-4.652439182052200105e-03
6.058322464391251161e-02
8.128215907448482769e-02
1.788671682109358452e-01
-2.592919081004737558e-01
1.489225742596454183e-01
1.472601802210941058e-01
1.878610580136045455e-02
1.407492895173333841e-02
-1.046366453966278143e-01
-2.626202781785355600e-01
4.689846688444568312e-02
-3.680278354928757101e-01
9.240108247358992666e-02
-2.937167340511271929e-01
-5.889719681112869955e-03
-7.389863618069753004e-02
6.036459984534336271e-02
-1.161244111977174052e-02
-1.499751027209502152e-01
-1.440152354588137840e-01
1.442955842127230104e-01
-2.139126988127294238e-01
3.759197203490619033e-02
-1.411175304386232121e-05
3.142303954482022349e-02
3.250203698273530784e-02
1.877639820216763789e-01
6.986442876753616582e-02
3.043398093849659092e-01
-2.788392123050086324e-01
-3.238382390660001636e-02
-1.795323883354069394e-01
-4.857699433885587226e-02
-3.399189773935844538e-01
-9.004222934044546489e-02
7.680756018864054457e-02
7.534719200740895746e-03
-2.046286281300717935e-01
-8.344159167823921724e-03
-4.149804319090572013e-01
7.617640946431654403e-02
-2.992769428092577622e-01
4.307131524426410230e-01
6.514428471354576089e-02
2.415616949113042616e-02
-1.008197209888312129e-01
1.137407117360484526e-01
1.862821222226319351e-01
3.519592127638925261e-01
-1.318303620107123209e+00
-5.813378442798255302e-02
-6.644821138156545293e-02
-7.996413920542772003e-01
-2.012759299121281431e-01
-1.919753848523440484e-02
-7.521478877743767444e-02
2.808347485101899202e-02
-6.845963399573581909e-02
3.123794005977041932e-01
5.245668245526038387e-01
-1.068462233015641388e-01
-4.778096052349544709e-01
1.059767710589795686e-01
3.195155843835267850e-02
6.547110308078109113e-03
-2.369798552986642215e-01
-2.045009728225072043e-01
1.434456997966272185e-01
-3.129693166554712302e-01
-9.053683042265489034e-01
4.485563201258230964e-02
-6.905683545662150147e-02
-1.593084544822441495e-01
3.959242472335758323e-01
5.838048147530445764e-01
-9.211790105183152999e-01
-3.334360119354633500e-01
2.040233313058293363e-01
7.281111054598011778e-01
5.470663845177012319e-02
-1.663040435769189695e-01
-1.797067731005889790e+00
-3.108077390090172032e-01
-3.947930183757962785e-01
-8.084265627907415430e-01
5.968315483909483188e-01
6.835929251282660823e-01
-2.760764566811010901e-01
-1.252949387571777873e-01
4.167342365387384506e-02
-3.785988876278856274e-01
4.003481329486992535e-01
-1.432615824712579533e+00
-9.686190357152043573e-01
-2.538522520684194372e-01
5.941884850125357387e-01
-8.567428109308887763e-01
2.304741946626138460e-01
-3.739450553631039620e-01
4.163300323581078377e-01
8.300485000354249632e-01
-1.551072532781951896e+00
1.427523798323571347e+00
-7.056729365914418683e-02
3.811078197720669802e-01
-6.987234937242524646e-01
-4.308126862683217539e-01
-1.247728460639597192e-01
-3.604039101074096307e-01
-5.420745124697090578e-01
-8.465994503000061622e-01
-1.946340082379888647e+00
4.702569537208716732e-01
4.154314431093565907e-01
-9.198526177904199352e-01
-1.149168918862022437e+00
8.002181073747191564e-02
-3.501300184465731546e-01
2.421830143250748024e-01
-7.734083370192798013e-01
-5.618086316807671121e-01
-9.348378673945187955e-01
-1.258380081797393080e-01
7.006387286103451517e-01
1.391022080489326740e+00
-1.073449911414293828e-01
-2.573731229352553829e+00
1.847422335193850129e-01
3.793257527095655890e-01
7.155675999673781762e-01
-1.779369412934987515e+00
-1.876220825614048016e+00
6.626225428978143039e-01
2.757271335941804957e-01
3.560867164921119876e-01
-1.402008481142368757e+00
-5.693082528861437286e-01
6.386279451334180290e-01
3.576865470354538834e-01
1.172860958407349274e+00
-1.385266370016065895e+00
-7.004770641957967781e-02
3.996539258226931568e-01
8.206441656842426990e-01
2.338849970283239932e-01
-9.788008206311678006e-01
4.396391389307044983e-01
-2.984214560829323917e-02
1.588904427632221505e+00
-2.436105847273236091e-01
-3.045345835791779532e-01
1.303510794982882137e+00
-5.150279003115240117e-01
-4.458196567190483295e-01
-9.684379048114950539e-01
4.129572092174874642e-01
1.430255737129298765e+00
9.616005987047284709e-01
-2.606300509557727962e-01
2.780035461554807852e-01
-8.424704695367505325e-01
-7.762330434980746485e-01
-6.808877450577516255e-01
-3.167085994055705012e-01
-1.106398772416397475e-01
3.010598585476348399e-01
-2.807765966486009956e-01
-6.711751682933175811e-01
7.085859500350404350e-01
8.605060404998099433e-01
-6.228950356781051134e-01
-7.149149737925034609e-01
-1.592293449741675748e-01
-4.420445972104150578e-01
-5.486766948799350063e-02
-3.283213071029171815e-01
1.424410982887574229e-01
6.949182276094837407e-01
6.504312093059748667e-01
-8.816941439550767257e-01
-4.794583165857277951e-01
-8.049529792191993938e-01
-4.884471389972606103e-01
1.884362590501704460e-01
-7.465469914925516870e-02
1.862620743218934838e-01
-1.725507097318372584e-03
-1.320812306168698547e-01
-5.184313413262893189e-01
6.539712217590254451e-01
-3.986313546305626093e-02
-7.800949515941912882e-02
-6.820622253921105882e-01
-6.946244225580541221e-01
2.692375965801326043e-02
-1.773512665941198163e-01
-1.783852350960134781e-01
1.166270710757413669e-02
3.565639471339184796e-01
-3.871206344981925618e-01
6.294826070570280763e-02
-8.233786416504370598e-01
3.752783225084850849e-01
-5.923108553702086665e-01
-4.656443778389057070e-02
1.364296836560892623e-01
6.768423349984212245e-02
-2.517901881683461962e-01
-9.892522844925255576e-02
2.927693339467790090e-01
-1.580577453464412085e-01
7.768199353022221809e-02
-1.289341226960653453e+00
-8.464232683785298805e-01
4.325926486075614558e-02
1.466761446684790651e-02
4.144053465128754582e-02
4.693223952943105515e-02
4.752868113217103563e-01
-5.896775938814500378e-02
-2.471146732325200240e-02
1.144756850391659003e-01
1.602524060186107102e-01
4.129705275858965297e-01
-6.610506450683399648e-02
9.016810488131046797e-02
-1.638251842476091957e-01
-1.035478670960401915e-01
-3.905800837324789887e-01
-6.051800967755447541e-02
-8.335929915914548627e-02
-8.336909204189017764e-02
1.110055059107864228e-01
2.133909771124532784e-02
7.582919056588661999e-02
2.705786990160443176e-02
-2.599457183523733450e-01
-5.251770665710785851e-02
-9.972287789072660502e-02
1.884993528183230016e-01
-3.647560735370423968e-02
4.290436637486205740e-02
-6.706732920665499365e-02
-4.065593133348690547e-01
-4.349315660400777939e-02
-3.734942522842432319e-03
-7.501028155322791990e-02
2.342816900959450443e-02
-9.475589180136248513e-02
2.302902128433572393e-01
6.700988448114232610e-02
6.857336111009137980e-03
8.437101210811949470e-02
-1.690175393604440301e-01
8.289719470136008850e-02
2.303213015742927583e-01
-1.995866923282385297e-01
-1.817292959607893221e-01
5.076635541268675195e-02
-3.560424374923210067e-01
-2.792524806125330772e-04
1.235401936167444259e-01
1.297150858040451160e-01
1.211342915764450634e-01
4.834189408288520201e-03
-8.773301582775221152e-02
-1.997999719293676590e-01
8.610011196203228023e-02
-9.581563822738707603e-02
1.906670624689173477e-01
-5.802541844926045050e-02
2.039476955291328608e-01
1.642888873517270309e-01
-3.563400045622739376e-01
8.746249486916614357e-02
7.109665422749324171e-02
-2.709488093075712034e-01
-1.177018241288415035e-01
-1.682262889888315738e-01
-7.182606125108273454e-02
1.397746847113603141e-01
-5.361424053963369241e-02
-7.245120258117945800e-02
-8.571113660757041786e-02
-2.268895636854771115e-03
3.991352844511841802e-02
-1.909154309893640045e-01
-6.311278734815700675e-02
-1.471750748130174480e-01
8.353398596451813707e-02
4.755234800612713475e-02
1.997693072162547712e-01
7.006131782968771926e-02
-1.655330569622879278e-01
4.599233236044691225e-02
-3.748709202615061603e-02
-3.972055599155351752e-02
-4.427068274968680439e-02
-1.051162169021871706e-01
-3.103273469444981641e-02
1.801688341914175484e-01
2.823771876049546367e-02
4.997771327322536594e-02
-6.408548954357218275e-02
-6.117798852723240616e-02
2.463341684010266208e-01
-2.820299789442391458e-01
-1.587118524614443693e-01
-1.796665382764870422e-01
-5.061491656795865518e-02
-3.769599963262159487e-02
1.858952760755347433e-01
1.100499519998790199e-01
-1.868163411742270186e-01
-2.878273751153134427e-02
-2.753552369090391250e-01
-1.082288418542074609e-01
1.329995588114881166e-01
-2.105062086783954234e-01
2.319109091063357164e-01
1.831095060951054843e-01
-3.725720735809704559e-02
-4.868428546991446226e-01
-5.243204681235243830e-02
-3.754617538021907952e-02
1.722636491901691214e-01
-1.292003141021244028e-01
1.781446710932022351e-02
-7.268460655693639860e-02
-3.210468793359391171e-01
-2.639871200534001094e-03
1.240494627355557405e-01
9.429289735726782418e-01
-1.080426109557412334e-01
-2.701077107481815801e-02
-4.408681920361370854e-02
-1.068068146642683625e-01
-1.423545762234007528e-01
-5.650992943685706482e-01
1.071781884366215937e-01
5.344741067562790854e-02
4.069907191512015660e-04
-1.522972649353827035e-01
4.982535118599297763e-01
-7.207303876241294427e-02
4.521041829058067285e-02
-7.570591444290179772e-02
7.890383471712676677e-02
2.335885643588096472e-01
1.609002189672846875e-02
-4.103407456829372829e-02
-1.625343649152576619e-01
1.244126944119343381e-01
8.984037368584851802e-02
-3.857612087395809741e-01
2.519323323778512869e-01
5.453129807306034138e-01
-1.169770283235011810e-01
-2.565366139548615476e-01
-4.266620210815758041e-01
3.411816719130418563e-02
-2.711211310109031269e-01
-6.577908110533250419e-01
7.098497756062725761e-02
-2.923255368352145611e-02
-7.442219920605613881e-01
-4.841593284280836795e-01
4.430313774410709615e-01
-4.679664905771607764e-01
-3.567560277970453497e-01
-1.237181535654691411e-01
-8.996013543621542152e-02
-1.216399814419745207e+00
-9.836275735660885422e-01
-3.166397997488197280e-01
-8.398205716593020176e-01
-5.160031140777814745e-02
-4.715072009642983647e-02
1.384884570877030985e+00
-1.086360896363250117e-01
1.389267934777823621e-01
-3.726451620445165314e-01
1.401266481757105886e+00
-6.319462677836255038e-01
8.421383136076052711e-01
-1.284343692522236902e+00
1.114489195349568362e-01
1.429494221761614114e-01
-1.412300172452962688e+00
1.815455123834334994e-01
-3.450608708435194960e-01
1.068241272881826354e-01
-7.241983416047252931e-01
-7.849074268093697571e-01
-6.918540936076278403e-01
-1.984588418889087658e+00
-2.070995991064650266e+00
-1.220950695045117662e+00
-2.745669674802101445e-01
2.017499011643034024e+00
3.638664252620297801e-01
-7.538212872516046881e-01
-1.117180788594906549e+00
1.237284911254070918e+00
-2.327763282801314781e-01
7.150289355597482244e-01
6.007253332493441844e-01
8.759097793939975007e-01
3.231567556481015902e-01
4.035873661715301264e-01
-8.521183976750759670e-02
1.334868011078917061e+00
-2.580571590219856160e-01
-3.570538100226416933e-01
-3.696257042753812727e-01
4.511520066213675628e-01
-1.058512845064724539e+00
-9.033478365452748404e-01
3.337646611586404799e-02
-1.154184785671020341e+00
-1.039760410065134061e-01
1.087314955513269510e+00
1.008406591461385116e+00
7.630828808416409426e-02
8.851559237480897124e-01
2.254828295931446402e-01
-8.189032454328949440e-01
2.680415594001985258e-01
4.723664211828008941e-03
4.621598578571332605e-01
1.377596312453936989e+00
2.635250614239043054e-01
-8.141752602787155624e-01
1.481687009077459649e+00
3.432112948900102878e-01
-2.502509879143965249e-02
-4.851222090805984433e-01
5.426533129669293132e-01
4.287576409248299858e-01
6.106687277811525538e-01
-4.830649837021537552e-02
-1.505103043886026892e+00
-1.617917332036510780e+00
-1.327315136262374740e-01
-2.873992509137753837e-01
-1.257056411618559244e-01
-1.835992237074307032e-01
-1.319356185926404690e+00
-1.495826065077183742e+00
-1.048180825563396867e+00
2.506291621775005307e-01
-5.019664671596076877e-01
7.059156043209242892e-02
-1.235033014551230046e+00
2.319436397675388450e-01
1.856778279163023293e-01
5.448828479817895420e-01
-2.545333646928765181e-01
-6.122786379329800965e-01
7.049039126114834408e-01
9.574152077276358586e-02
-1.533658359847608343e+00
1.263094209953328884e+00
-3.755883566692302944e-02
2.728962662067593303e-01
-5.996721415761874577e-03
-2.047635839313739492e-01
-1.173866504460231719e-01
4.727594797900876444e-01
-5.256203701779446069e-01
-1.623839487065960596e-01
9.416949549195161029e-02
7.758857112192455441e-01
2.328082495136974683e-01
-2.674728085973502867e-01
6.896435761965122313e-02
5.284608573884093108e-01
2.647070493604236976e-02
4.660560438539011058e-02
3.684931783060528820e-01
-1.587661452781830018e-01
-1.509579161958440330e-01
-8.292400092823817848e-02
6.030156689365649969e-01
1.725723503290196026e-01
-4.850931863724701476e-02
-2.700080033531438994e-01
1.840853374691101829e-01
-3.829323731173309153e-01
-2.947942115186884537e-01
1.596983106241202099e-01
-1.164243348096423991e-01
3.768000348053084925e-01
2.972971801050748875e-01
-1.287290433745902352e-01
-5.059969719224458734e-03
1.844459631820060952e-01
-7.268002584712807135e-02
-2.775541611524268704e-01
1.574565520864267543e-01
-4.110484126173815506e-02
-6.840715840522815228e-02
-1.638126780003603400e-01
-6.538150419938707492e-01
-1.041556194409685582e-01
-1.294418211077328663e-02
-1.548841587676985931e-01
1.648924718346904683e-01
1.092604201570045591e-01
1.446600166549116828e-01
1.168736560931370183e-01
2.332520930940081005e-02
6.119689459197132086e-02
-2.506459563944314350e-01
1.823338061461541593e-01
5.147322983551200215e-02
1.909689413988253370e-01
-2.324468972144103085e-02
-1.258388181496829517e-01
-1.487108881413573731e-02
-6.472233877681042580e-02
1.520271675646026402e-02
8.960913468881345767e-02
3.429564511103381230e-01
2.065737390243956376e-02
6.294405613143232159e-02
-2.817916550871548131e-01
3.560011190736814268e-02
-5.108598499044204183e-02
-8.218086713700964441e-02
-1.726671683132877666e-01
6.006394024498042800e-02
-1.201993777021905935e-01
-3.177680330077456428e-01
3.209563615994307992e-03
-3.009570406619865510e-02
3.436234217698540955e-02
-7.735517256991931989e-02
-2.017356153450213796e-01
2.515626684994515250e-01
-3.881780575665475658e-02
5.856118221903741650e-02
1.393615749207469112e-01
-2.130619959205665506e-02
1.613598365511413613e-02
9.977638782615599888e-02
-1.763187308422258237e-01
6.929285830909799604e-02
8.070546724612485956e-02
-2.626138616608149068e-01
-8.082928141647534315e-02
2.242099873498174245e-01
-1.041168413059894993e-01
-8.604018352383163704e-02
-9.740619037024349225e-02
9.420516359096189896e-02
-1.660622919340074555e-01
-1.142043581215087117e-01
5.789945265113402052e-03
-5.652397392624103345e-07
1.504771636215752328e-01
2.228230397057045786e-01
-8.553272755866557497e-02
-9.357255238674636044e-02
7.587548562805521146e-02
-2.021381377145663877e-02
-4.722040674337734528e-02
-8.473962757621128841e-03
-1.608557983146143011e-01
7.524073489329312359e-02
2.667532574842604309e-02
1.446060206878429510e-01
4.798604636952680247e-01
2.278147096325685780e-02
-1.441204572800302564e-01
4.513145192494089769e-02
-8.456293098373951489e-02
5.843297768251196067e-04
-1.463447268887500541e-01
1.544293183731913210e-01
-1.419494115444810411e-01
2.857267193461651006e-02
-1.167247337946432928e-01
-2.084213153884387770e-01
5.943855870324166527e-03
-1.133400162856601917e-01
1.285357720609057661e-02
9.497066300815687478e-02
-1.206356158251161576e-01
1.044748590497639323e-01
5.718798865249727359e-02
-2.516231809516204787e-02
3.362397619048360653e-01
1.731644924536351882e-01
-1.225192181875005282e-01
1.107102895851031499e-01
6.420013865687759780e-02
-3.581938959284733381e-02
-7.563367161297505914e-02
-1.188661845189932093e-01
-1.126725741536859643e-01
-5.140525873949632757e-02
1.684780637724669627e-01
2.797905061385784764e-01
-1.720750151888530699e-01
3.113441504162547252e-02
9.783853806551615073e-02
-5.659599548003393932e-02
-3.336315912679237439e-01
6.586849176450243482e-02
7.094690854227169753e-03
4.277951473055382342e-02
-4.643884190543884349e-01
-5.508934967972220487e-02
2.723795386391694023e-03
-2.653626179459692147e-01
5.235188195135425521e-02
1.448249110342401391e-01
2.933655110416489853e-01
1.992602651923836843e-01
2.789387757627190614e-02
-6.582435086174244498e-02
1.191334057265388408e-01
-9.557359595263685836e-01
2.878163173089670068e-01
-3.086265745545326289e-01
9.727079822686125754e-02
2.162873783820678797e-01
-4.642194603626274008e-01
1.967439005056807189e-01
-2.002262759295038719e-01
-1.066068641340287421e-01
1.819666203089277956e-01
-1.971843018341449816e-01
-6.848725287884427360e-01
1.876484025733950733e-01
1.069636311414677576e-01
1.662403814306834537e-01
2.606584667230567587e-01
-5.888993616457419700e-01
1.228476223565339170e-01
-6.745851512429638930e-02
-7.945259788276660684e-01
-5.144838025683905469e-01
-1.935520042705359267e-01
-2.131191767155139749e-01
-1.701440558728222474e-01
1.732994034304748410e-01
-4.537621293286144275e-01
4.480435753054243797e-01
-2.128111100987206405e-01
-7.953815403459758571e-01
-7.280520273031355627e-01
-6.176574612416254606e-01
-1.298249450731017829e+00
-1.336080782040017789e+00
-5.420749090447111312e-02
6.687040381177368487e-02
4.649080631290738314e-02
-5.362194087241214380e-01
-2.431312935109651574e-02
-2.224892013409648928e-02
-5.622307360930869358e-01
-1.671175638589442514e+00
-8.722901109544046738e-01
-3.362704648196725432e-01
-6.337952553461045913e-01
2.976881902783706790e-01
-9.182695838139091904e-02
-1.112774940047884575e+00
-1.773946086248167353e-01
-2.490419770311890879e+00
-7.771106238381135789e-01
2.035234380645935648e+00
-1.271497657799257830e+00
5.548223510826122418e-01
-1.103523974179946965e+00
1.013537380281380518e+00
3.347193602012558666e-01
1.125156688751968899e-02
1.162995712806341730e+00
8.818174989883712511e-01
1.350406533238543094e+00
2.817532284978470081e-01
-9.875329988500619605e-01
-3.996627124082426930e-01
-1.908471877156815655e+00
4.675666783495504575e-01
-3.746202767948979551e-01
-4.941555268679289625e-01
1.694787577092222719e-01
9.498482682135411803e-02
7.727592417464246299e-01
-2.086092805236210879e+00
-4.818285407935541387e-01
2.519343164144685621e-01
-5.086974018609995152e-02
4.393446894352901477e-01
-8.154014864785089634e-01
1.153385281388319195e+00
3.003303209380449590e-01
-8.049301528814225559e-01
2.941884984170899942e-01
-2.636579886987913124e+00
-5.353703574071267957e-01
-1.639157117948495612e+00
1.592671987875709627e+00
-8.203687205023003637e-01
5.721418388707093516e-01
-4.131686837133881074e-01
-4.735384681528507222e-01
-1.939539390729513313e-01
-4.428886857616071704e-01
7.893280729147970076e-01
-2.269277632669195188e-01
2.356040325193055618e-01
-1.162371837503698990e-01
-1.538222898590255294e+00
-1.201317762955608437e+00
1.358673802091799221e+00
-6.308318806707256809e-05
-7.540930193910587720e-01
3.618757407957596817e-01
-5.919218041670945007e-01
2.640494657941118706e-01
1.275051695625986081e-01
-9.844943789427359482e-01
4.682692708608595517e-02
1.559408099311529350e+00
-2.096708238355457499e-02
-3.023512936437216525e-01
2.750230601670390351e-01
-5.844827483625200104e-01
3.701429824857092599e-01
-2.583991623714430030e-01
4.905487315984501107e-02
8.232498292888369429e-01
-2.799872500539745679e-01
3.529258273084222020e-01
-4.559992636081083295e-01
3.454330868653909259e-01
3.966638949071292219e-01
-5.492161453533596083e-01
-8.059616680174256365e-01
2.323833310668113952e-02
-2.526434224082819632e-02
-5.394588972484161138e-01
-6.944059731566243343e-02
-9.648794340143820314e-01
4.081110590732194288e-01
-1.228969624111880821e-01
-1.939228228511002128e-01
-1.049515666350522514e+00
2.746035320819368852e-01
1.104480778255060164e-01
-2.757237570886344330e-02
1.541284671634199910e-01
-9.633853109062863462e-02
1.600230619783652442e-01
1.812024503608556103e-01
1.687746740196537087e-01
-1.944262747487128240e-01
-1.493258583583387603e-02
-1.398411019219163665e+00
6.099620590791994534e-02
2.613916169035554460e-02
-1.831530483181671998e-01
8.407377795994853964e-02
2.166447382767143492e-02
2.491700235798746943e-01
-1.713621213673165999e-01
1.134932132062680538e-01
-3.092684442742066886e-01
-4.566902440194741675e-01
-1.323981647309179291e-02
-1.975528298561509133e-01
-9.266439226693953812e-02
7.639544217814164123e-03
4.844804761452620179e-02
-6.669883756112993112e-03
3.909526008949312792e-02
-3.746818939994984304e-02
5.625017642807714907e-02
6.132981602980415170e-01
1.077806776868339422e-01
2.444927949681793833e-02
-1.180798515374157087e-01
-1.463644186348648374e-02
5.760698022028677354e-04
4.716096349821813360e-02
7.481574914994149061e-02
-2.602183966185064173e-02
-1.104746163286515481e-01
-3.143741687989922151e-01
2.419308623279665255e-02
-3.892166264328875136e-02
-9.616175597175410927e-02
1.153178438979793330e-01
5.869529786663586768e-03
2.250836272350979217e-01
-6.070478316551636971e-02
-1.231116127699141971e-01
2.697811559858001584e-01
-1.059557303581932508e-01
-3.146316091811758586e-02
6.530420127086218607e-02
-1.056648505261449794e-01
-9.801421339890233064e-02
-8.326732893352414844e-02
1.706432143414472469e-01
1.599249094876389610e-01
-7.496222055171844478e-02
-1.963154285540720523e-01
5.899035974418036232e-02
1.426105606873666158e-02
-3.357515297487790457e-02
-1.529056098433267952e-01
-2.428422079176362214e-02
-7.982382674352546392e-02
-1.072677447589367034e-01
5.233289784702982450e-02
1.745323715300542422e-01
2.699563663565211491e-01
5.231228214102384699e-02
3.827592797219607490e-02
-3.739875132812407743e-02
-1.987751534692997757e-01
-1.071313628028981446e-01
-2.667782143245701620e-01
2.106223503654532092e-02
-4.607089164342374754e-02
1.111433137813325339e-01
3.371415339873380310e-03
-9.007442702310029803e-02
7.897348893267958081e-02
1.332099488324731476e-02
-3.628250544911535563e-02
-8.062797818020269597e-03
-2.134104535718059359e-01
3.075403854163641371e-01
-1.153905652648194030e-01
9.173003960749902264e-02
6.576635463700034601e-01
-2.261112247746493997e-01
-3.489917914183770370e-02
2.784445191725543056e-02
-2.483906143238819586e-01
-5.600563249357077764e-03
-1.623721872978498293e-01
-4.420118194936656364e-02
5.692866762542194564e-02
1.318795015354873312e-01
-1.269622992180981236e-01
-2.539431493755892055e-02
1.967112394337273973e-02
4.134096060408341128e-02
2.652730864200991689e-02
-5.181932809532273365e-02
9.715269153127453761e-02
1.095449383968022800e-01
-1.069241657307595378e-01
6.491610138744313696e-02
2.432961362798575222e-01
3.450676641636378494e-02
5.405718642960102155e-03
2.581515169341212432e-02
-4.389014738077596373e-02
-3.858408976741299623e-02
-4.805984621059430917e-01
3.432715954197028060e-03
-1.420480232397443657e-02
6.217757576424338961e-02
-3.069393929068240379e-01
6.304161013211979220e-03
1.844013151356620750e-01
-1.035208769218749075e-02
-1.065927530593404476e-01
5.978138819291584083e-02
-1.940836885840870607e-01
1.103869839920198492e-01
1.075279960580570043e-01
-6.246658390041585213e-02
1.484592114325030687e-01
-3.831927476195062798e-01
1.803362139694870692e-01
-9.351450522405051202e-02
-2.238286042358318406e-01
1.291643871222910578e-01
-5.058834874773514567e-01
1.219051598988029061e-01
-7.371247542042255740e-02
-7.584519746491397152e-02
1.498785960350162982e-01
5.703161450564685486e-01
-1.207164766237988837e-02
9.010955746171689373e-02
4.370025811694935869e-02
-1.345711698842447105e-03
-1.463198802969645218e-01
-1.728303718261279542e-01
1.647934151207371967e-01
1.875152636387620309e-01
2.598190930540356658e-01
1.612807102823917982e-01
-1.330130463189938828e-01
1.385526161476527685e-01
-2.544461289132118886e-01
-1.358789107816953667e-01
-3.815603933109543155e-01
2.300410392478907662e-02
7.012258529408857410e-02
-8.566129348241985353e-02
-1.856734343754591898e-01
9.626554297554675010e-02
2.615140832640964197e-01
-6.231252032027317922e-01
8.572207047998479934e-02
2.662069353130428473e-01
-9.245550486624357633e-01
5.109357126828236728e-01
5.543546759708174732e-02
1.272111082872841581e-01
-1.186496532474050070e-01
-2.015514564976418121e+00
-6.725769747350323069e-01
-7.159906840999751276e-01
3.756996495442264938e-02
1.022315668870314581e-01
-4.249916252545153372e-01
-2.219206622840478038e-01
1.450890032917472316e-01
-3.593699565002813623e-01
-1.348575266135138007e+00
-6.796073716862813807e-01
-7.505044601231691814e-01
-1.811408741976824111e+00
2.268273844467072198e-01
7.603692084265641915e-01
-4.732392721328564367e-01
-1.365218514155734919e+00
-2.979621571565513882e-01
1.886425025791607646e-01
1.611115189352533561e-01
1.372930447933987663e+00
-7.399130429847794455e-01
-1.018432772401026698e+00
-7.301900125670645059e-01
-7.773034895737628291e-01
1.448113971375944442e-01
7.660049011794417551e-01
5.233616865395218989e-03
1.648992057735094718e-01
1.464025093996746296e+00
-4.453906288324671059e-01
-3.241390757442537685e-01
1.138787705670179840e+00
-5.135127119392413064e-01
-3.315226857790464221e-01
-1.008139344221366640e+00
2.840337730104801617e-01
-8.601343550768913992e-01
7.814393311393620367e-01
8.673217864576306946e-01
7.916876691455307369e-02
9.899047682203161447e-01
-1.155992280102177278e-01
-5.268983359385147613e-01
1.863131499205397668e-01
-3.268075292347747962e-01
-1.106636503829113050e+00
-1.048939251974415843e+00
4.337366538312419917e-01
6.342382221759014227e-01
-1.171005677172794801e+00
-3.940954483116593243e-01
1.175308229732061394e+00
-3.084825500500190144e-03
-3.971044254915951921e-01
4.484948895886805564e-01
-1.140705529931402173e+00
1.248220680505182978e+00
-1.048675102318825658e+00
-1.587776792705745121e+00
-1.162533311935030032e-02
4.567472795969783061e-01
2.586537997821300450e-01
-1.797648385605914445e-01
1.022506811202965160e+00
-2.579653434484801444e+00
1.255264788015982846e+00
-2.461078437111608341e+00
-1.744117851430619259e+00
5.973443796077466672e-01
1.462376935015490487e+00
-2.290135346736241473e-01
1.228113860927069340e-01
1.809913843930717747e-01
-2.700020885195503428e+00
-5.724491028932230385e-01
-1.082035554809073652e+00
5.441920978651065832e-01
2.342641876118098376e-01
-1.990376811343264496e+00
-2.804077258665879646e-01
-3.120013888523925916e-02
2.695476734211575964e-01
7.293912157356580162e-01
-6.436173436406760207e-01
-4.634753011551072110e-01
8.238391703046326064e-01
-3.431155481908574889e-01
-5.078087156228301424e-01
9.508577190470381968e-01
8.735861509829051519e-02
4.140417234444785932e-01
-1.230303934673790539e-01
-4.491406365029677050e-01
1.347221115790682155e-01
-1.797798406555709688e-02
-3.395556791734824498e-02
-1.295087681582591799e-01
-3.665091960051932718e-01
3.279241010891307817e-01
-5.937259475831982436e-02
-4.417717057752060805e-01
4.097745553289279703e-03
2.516036204735289661e-01
3.051220367306793288e-02
9.575103677855259510e-02
2.664275221311921196e-02
2.825184971798610709e-02
1.092271935015471929e-01
5.143881200200938197e-01
-2.384862464023147777e-01
-6.134422915072502980e-02
-1.194350798855976434e-02
-1.997015973154168261e-02
-7.292073539738702648e-02
-3.669715421844306769e-01
-8.554935871134840275e-02
3.514814065893737127e-02
-7.074452528008756680e-02
-2.721409153911473131e-02
7.494104017463963929e-01
-1.103013071557214508e-01
-7.903653087798759302e-02
-2.864596117183102614e-02
-4.051932125767328252e-02
4.175415554367560567e-03
-1.949410782859151148e-02
7.795251469068290029e-02
-6.022140177970630032e-02
3.648237755215730238e-01
9.993539928315260668e-03
4.023201261942298268e-02
2.015509685698484710e-01
-7.758642283743130696e-02
2.259142905486648950e-02
-1.037448022615809762e-01
1.040594407519219861e-01
1.385255267123914891e-01
-8.233251215886933094e-02
1.947766633229897348e-01
-5.322621354037105901e-01
-1.793856341809291904e-02
-7.701557849240685955e-03
-1.395859004647050372e-01
3.655619968606536874e-02
-1.867605641190072385e-01
-3.500688653194394123e-02
-9.718918621171888927e-02
8.962202293464677227e-02
-3.757940262029012268e-02
1.099090770604471967e-01
-1.063148694999022092e-02
-1.829974766118962481e-01
3.246901191959410127e-02
1.061654274366622686e-01
-1.086330507282279312e-02
-8.014700627394130694e-02
7.692011919426809674e-02
-3.625623091393070929e-02
-2.860748905957047339e-01
-1.292960798065946049e-01
3.480214731827618868e-02
-1.224130288808315953e-01
-1.485984554966172100e-01
4.286636541861835181e-02
1.244570217318743260e-02
4.386894374427828258e-01
-2.091136592367937030e-02
-1.625733450342221539e-02
6.276447191541498771e-01
8.627411608604462767e-02
-7.327729381193701097e-02
-6.556017746803981250e-02
8.400103918998216845e-02
-3.180737542404085509e-03
-6.492930483109840556e-02
-2.367484763227804268e-01
3.261836221363692556e-02
-2.368490617579141130e-02
-1.821775930589811798e-01
7.849875256402347179e-02
-3.028217064752864937e-02
-2.979403664011878727e-03
-1.359439773141433438e-01
-6.625541825769579174e-02
7.734847150674527966e-03
4.307627883076342590e-01
-6.738722168759386788e-02
2.900535683794420311e-02
-2.340975552558325901e-01
6.781758686946882941e-02
1.234834669575960581e-02
2.444847357335861240e-02
-1.860440574364613520e-01
-1.387371526469824701e-01
-1.872166925793183334e-01
-2.164218210621436378e-01
-1.484155125430905164e-01
1.542849446611703479e-01
2.034625390128684819e-01
9.357427765834215594e-02
8.291958031220379721e-02
-2.350373755440681584e-03
1.601163616971978676e-01
-7.781987980540523708e-02
-3.605613248320289066e-01
1.125961540561391250e-01
4.353038458370304259e-02
-1.132085629146272060e-01
-5.536561915323590967e-03
-7.747452760373725600e-02
-2.108454011808003903e-01
-6.047356111085109252e-03
-1.753114615200620230e-01
-5.044436772389892382e-02
-3.338809716560403595e-01
1.345926969675545759e-01
1.294459701302321519e-01
-3.748005634687754523e-02
2.239679228826298996e-01
-1.227836212448550970e-02
8.115426327084954150e-02
1.311558602146813135e-02
-6.595848263915424226e-02
-1.391018876115422964e-01
-6.956071954954164138e-02
1.962906972059261790e-01
-3.500197194662521549e-02
5.167642520739404444e-02
3.996300339728331985e-01
-1.155327109606825858e-01
3.757161187092708521e-02
4.815602633116190107e-03
3.252309423477946909e-02
-6.762026997976332277e-02
-2.727337733701614142e-01
-5.146205740209994911e-02
-3.654842182629081809e-02
-1.006361785329167730e-01
2.805742778169542651e-01
1.152224357451236136e-01
-7.329729504047928501e-02
2.156934626754922479e-01
7.699709355126982402e-03
-4.463889374778350072e-02
-9.104682671064712185e-02
-1.376892416838173538e-01
-4.740709992769999090e-03
5.185050088027192555e-02
-2.306347162773949577e-01
-4.216961950952112237e-01
-6.130762678313150110e-02
7.262879554317433484e-02
-2.484932810851975954e-02
2.956553572280035125e-01
-2.033301085383252826e-01
8.425629086569816351e-02
6.376240842419649002e-02
-2.108202642334596200e-01
-1.191126402483711488e-01
2.623505552237472283e-01
1.078053660617054599e-01
8.355665526823062572e-02
6.970633526297134730e-02
2.145556903836725315e-01
-1.941734409088166982e-02
1.333295531831523058e-02
6.859750874379214047e-02
-2.056425005421431695e-01
-8.926658522203489987e-02
-2.058988298660443389e-02
7.189614168573522923e-02
-4.898278924241581539e-02
-1.187759490280524410e-01
-5.676587571897403345e-02
4.370980870078188252e-01
-6.280978023498617890e-01
1.093718403530655470e-01
-4.772764980584775496e-01
3.344504626814548409e-01
-8.105809717060636910e-01
-1.020946988426088220e+00
-1.194713368885800486e+00
-6.625214929749584369e-01
5.458429135029360113e-01
-4.828814845887510199e-01
4.139199012602434169e-01
4.159428994685832048e-02
6.073279752388729413e-01
-2.195877504286200654e+00
-8.948082425840396814e-01
7.457737641938169681e-02
6.575995418665515624e-01
-4.040488993914957694e-02
-1.524188516429647033e-01
-3.329279069715117001e-01
3.601865501761751798e-01
-1.154750267818110826e-01
-8.347642970303914556e-01
-4.254510758601766363e-02
-1.804679145139758134e-01
-6.519825215465091528e-01
-1.056834280276685689e+00
-6.945707249011086326e-02
7.386593580699558625e-01
-4.411359310400341238e-01
-9.949501294689987452e-01
9.722998392534962786e-01
3.938596636630759540e-01
4.514277458851882474e-01
1.395474862575916797e+00
-5.753694549139993786e-01
-1.698565789719166164e+00
1.023168691641373362e+00
-9.078558809424783771e-01
6.768998703169861741e-01
2.495359476591627323e-01
-2.001611442965299525e-01
-4.843830270420926287e-01
9.791836955151130839e-01
-6.708845764696553804e-01
-3.142291329380969001e-01
-5.015896863353069834e-01
-4.315144923451161851e-01
1.653634233587330860e+00
2.171156716422355526e+00
-1.264082302038033456e-01
1.465517929700005662e-01
1.211200329445057067e+00
-5.627505679486388690e-01
-1.676729505935678821e+00
-2.369996826903978115e-01
-2.626193967007172669e-01
5.314823612782794138e-01
-4.072438168177512918e-01
-1.161258413425025227e+00
6.671670900393723569e-01
-1.067361709078443965e+00
2.665332383222477342e-01
-2.667290224121236508e-01
-1.613247392636203981e-01
5.958207381728223284e-01
-1.361133571171789791e+00
-6.820362714420616368e-02
-1.808677454225837034e+00
-5.279092712364829021e-01
1.091651661215614189e+00
7.368093645477492570e-01
-1.894934122794087905e+00
1.423581479535680760e-01
-3.300406086862891497e-01
-9.472208924064511315e-01
-5.907818809236853319e-01
-4.268646979217734505e-01
7.765097579660705795e-01
-2.967312227448158368e-01
-2.972789940471191605e-01
-8.843967853903199616e-01
-9.254860697507147904e-01
-2.401581227132120466e-01
-4.840621848995693699e-02
-5.963160661481585467e-02
-1.449497105794118612e-01
-4.350427348136691186e-01
-2.711770240506919394e-01
-9.246539050316353592e-01
-4.051811854617540232e-01
7.798976690944652290e-01
3.876372023099456388e-01
1.567375356094585781e-02
-1.696718289320323647e+00
9.370055374371510926e-02
3.559807720068540460e-02
-7.850294820183389977e-02
-9.752926608636161565e-02
-6.274934367885104392e-02
6.101225809963157776e-01
-2.255620602582406597e-01
5.127865417044361745e-02
-4.748117329157125477e-01
-3.967322857093857902e-01
4.043642878205720437e-01
7.296337786168197170e-02
-2.573219514850864642e-01
-1.242737340622618591e-01
2.088662892750754452e-01
3.422642481878317156e-02
2.318259882311538567e-01
1.712400260604081959e-01
3.639407480920291982e-01
2.646627917708895272e-01
-3.963330249818491219e-02
1.746499834288479935e-01
7.165697698000912663e-02
1.946011778734739739e-01
3.872872580319027813e-01
-4.677209342270816084e-02
4.600669382596783014e-02
-6.390768749547870442e-02
-6.334521908286029346e-01
1.284618623803268911e-01
7.766853234615403445e-02
2.528468434059853026e-03
7.863545188749616888e-02
1.434590593060622032e-01
-1.693995432929642775e-01
1.045453348550224593e-01
-2.555006376341617536e-02
-6.592021593778409072e-02
3.265428318267677432e-01
-4.823709501542620681e-01
-1.413068201546615124e-02
-2.469258287687490505e-01
-2.411969523803829743e-02
8.735771964016997293e-02
5.387491350044742999e-02
7.636254620186204434e-02
-3.722314973353137851e-02
-6.192637386610441025e-02
-2.611720146260945730e-01
5.701048970729473142e-01
-1.416249682285582352e-02
-2.371767601592527086e-01
-2.791859572546760704e-02
1.573069423424968138e-01
1.117837285933770547e-01
1.020425745881623075e-01
1.383049601396158235e-01
-3.344321696856456666e-02
3.124374971114263211e-01
1.239604762908618207e-01
1.624038137260689491e-02
-1.792069252175063632e-01
-2.312255360688600381e-02
9.706113399117233254e-02
-1.457548853110800791e-01
-1.923376907237465960e-01
2.306804964229088040e-03
6.593853587117406989e-02
5.507317248098135554e-02
3.217490614206956479e-01
-5.048485765244634799e-02
-1.506632612800751780e-01
-7.597494926015077588e-02
8.101288383313604013e-02
-1.405001010314403387e-01
-1.738714113582171816e-01
1.037990028487859595e-01
-2.394510025088393557e-02
-4.093401123188122326e-01
3.660014957982859769e-03
2.936641813505911497e-02
1.357006167429730126e-01
-1.240658172224949757e-01
1.089314565043033312e-01
-4.805737128261200475e-02
5.821651428243200810e-01
-1.055020919247954408e-01
-1.593174790418220854e-01
4.904616811657872555e-01
2.365091359423298623e-01
4.108901317378830555e-03
4.924086725201438919e-02
-2.179834383235016160e-01
5.852488094350724590e-03
-1.104872035314625189e-01
-1.255559629519380771e-01
-8.202165929042659620e-02
1.008081942097962674e-01
-9.229619156581863465e-03
2.275091650779987595e-01
-1.582014145051794940e-01
1.126901774966448944e-02
-2.309720507772168238e-02
6.264019096414559507e-02
2.664813670016467212e-02
3.904147595463637876e-01
-1.634658521699982603e-01
-1.533574083738990235e-01
4.491729399797526612e-01
1.158655510822735046e-01
-9.710711704878548234e-02
1.795524014054046269e-01
-2.639847200986686904e-01
-1.015384431544175126e-01
-5.925820465256050745e-02
2.356473623869166367e-01
-2.211909165584933536e-03
-3.276163806946641444e-02
1.281167914993446011e-01
2.800402529035598831e-01
1.876502118606303282e-01
5.112577014009660713e-03
1.338190689236455899e-01
-1.407907453433143163e-01
-1.630747315311764367e-01
6.288180509801402640e-02
5.766453797385998753e-02
-8.568836489377208709e-02
2.752917189453246150e-01
-2.638813812246463275e-01
1.156266929821058720e-01
-3.217499392911991538e-03
-9.007598244278265665e-02
-1.227936430154079744e-01
-2.232168645918854999e-01
-2.470697426837076272e-02
1.043561798212165465e-01
3.847152282868220030e-02
-4.098763789549770831e-01
6.651242586347953789e-02
-9.260381920518057086e-02
-9.434902201021178048e-02
-7.093960613631215828e-02
-1.105829103961959992e-01
-3.447523656525294244e-01
1.757979534604851291e-01
1.277518499364173610e-01
9.590072920672278178e-02
6.322429849219808606e-02
-4.151913350896276889e-01
9.675304476501030149e-02
1.132459122115502537e-01
-5.919581726677363570e-02
-1.893919363540642054e-01
2.366973997979373787e-02
1.190342467347806216e-01
-7.965710828081812300e-02
-5.784504531167605074e-02
-1.033664558505653364e-01
4.775527538011661854e-01
5.148995937119894839e-02
7.402532750397208816e-02
-8.096694778142690674e-02
-2.220112603525986328e-01
-7.402532986071972201e-03
1.054179418727639594e-01
2.828679503759609082e-01
-3.293356908318507970e-02
2.086343735479087858e-01
-6.456718577809935633e-01
-1.696622282180446362e-01
1.614403010987906228e-01
3.271227105348941677e-01
6.321193584294241274e-01
-4.018192846936922136e-01
1.779671127271938436e-01
1.262465594467495067e-01
1.837991611784822177e-01
5.482467136752884329e-01
-1.554698625114046551e-01
-1.117033206379299537e-01
2.330750734324429363e-01
-3.738305969113179250e-01
-1.925234771140281811e-02
1.368665106054367808e-01
6.328755037822577645e-01
1.975403813416460042e-01
6.180398432734949404e-02
-5.358351392731174334e-01
-1.608416099712349223e-01
-2.092522556285501545e-01
-2.167547232873055840e+00
8.028707667349147536e-01
9.120789960342451375e-01
-1.914944360031916870e-01
-4.155287879054726519e-01
-2.265871282437490475e-01
-8.258313596411287483e-01
-7.802008103773295788e-01
6.481761635280013367e-01
5.286201554143792058e-02
3.095829589956182737e-01
-6.095600162135057509e-01
3.915976572491913221e-01
-8.921380271404206752e-01
-1.059709336235366228e+00
-1.997769861766496846e-01
-5.111999558148027090e-01
4.998114483212012793e-01
-4.202677667218369245e-02
-1.444997007396112698e+00
-3.130470807609036510e-01
-1.144150884021820413e+00
4.227307124184285225e-01
-4.731209049957691426e-01
5.553051733320778505e-01
-1.358765224173886788e+00
-1.734176509496330454e-01
-1.290816619372422647e+00
-8.890903422643414711e-01
2.719888663394854356e-01
1.197323897817065941e+00
-7.268832417074165830e-01
5.485417515877845096e-01
-8.543216495273107947e-02
6.892421367504400487e-02
6.785970878076714730e-01
8.117498598883711169e-01
1.080621130721707039e-03
5.581152491699122864e-01
-1.545947869701613131e+00
1.612655937304095177e+00
4.651894574624542700e-01
5.106268420192380253e-01
-3.590808689067822024e-01
-1.521060022551992574e+00
-1.641004754347846095e+00
6.472092057905677320e-01
1.263594903252994950e+00
-9.074470109638671511e-01
4.656921877136959154e-01
-3.623585810347413338e-01
-7.810204482267755211e-01
3.371778016777121079e-01
-6.079810938154115441e-01
4.693515903246446852e-01
-1.389557830785172143e+00
-5.135809834556435138e-01
-1.499950564673398490e-01
-3.531598925183798698e-01
4.610695929098663770e-01
3.051266584768960177e-01
-4.657255895062133999e-01
5.663607132465915406e-01
2.636248530269809653e-01
-1.350372668010718202e+00
8.423840967057819595e-01
-5.638123630822090560e-01
-6.266340806873303970e-01
-8.150998160806691706e-01
-3.999886231890090738e-01
1.369863262567449169e+00
1.136727098301499594e-01
-7.422871016655488985e-01
-3.706773406919104397e-01
1.510862038605320645e+00
-1.430821062646374653e+00
6.848464259553400657e-01
-5.209287979517074341e-01
-7.583061091255087760e-01
1.176740760864673496e-01
-5.919848756441439819e-02
-2.328144080054517506e-01
4.982118784618309038e-01
1.732015951306073553e+00
-4.550961423624815816e-01
-2.099878696460168725e-01
-4.386315756301646385e-01
-1.808208425113572160e-01
-1.746517308753619824e-01
6.385418785498586658e-02
-1.667728445019795724e-01
4.809638188474184978e-02
-2.657167592085975527e-01
2.630033039915772308e-01
1.434174901223625800e-02
1.117294999995485996e-02
-2.886540940914574666e-02
8.858140633857061186e-01
-6.974555999027364228e-01
1.290400445567394805e-01
-1.755951227869354814e-01
-1.625340363490546808e-02
2.517729013346823308e-01
-6.207283154649116952e-01
-5.426165511523606266e-02
1.223114246937051508e-01
-1.166589468859474815e-01
-1.002747260332014639e-01
-9.842869143558627409e-02
8.521818794263752439e-02
-2.876219539328717101e-01
-5.748857689723351622e-02
-1.139394595918702818e-01
-1.929376989490194372e-01
1.052486550402454007e-01
9.606096051835068261e-02
1.299395739533099614e-01
4.258407056270143154e-01
-4.616008367360756592e-01
-3.555460223699534739e-01
-1.725613458450455662e-01
-3.616327123219829909e-02
6.044614247691424552e-02
3.227644286728134637e-02
-4.538077960435107361e-01
2.377271304761967019e-01
2.159428900270929097e-01
-3.962374729772570880e-01
2.490603174087690774e-01
-2.829168434387223097e-01
-1.405851071877434744e-01
1.755213354216896005e-01
5.676234982827683268e-02
-2.519224715558623928e-01
4.370933869152676676e-02
1.455344555317993616e-01
-5.683671281878523163e-02
4.115691132134870894e-02
-6.612623516833612269e-01
-2.026432554678932463e-01
-1.889424494461751369e-01
1.139521887677785589e-01
3.217338488296836441e-02
5.821069795049428619e-02
7.190440300899902937e-02
6.110865330988977939e-02
9.246293894617718667e-02
1.989382920560638784e-02
-2.738003874065886856e-01
-1.861419289646721598e-01
-8.200235927357059362e-02
2.766760263805972953e-02
7.935177877056961981e-02
2.263507039914307642e-03
2.589701110354195035e-01
1.127144741801840433e-01
-1.679767391387400333e-03
-1.868528783726966236e-01
-3.049022065143213167e-01
-2.362946949753150228e-01
-5.240122302252302189e-02
1.893339010595791738e-01
1.545732406527853924e-02
-9.388517526802749036e-02
-2.742897379964309712e-01
1.031044745172613464e-01
-6.704271081229966692e-03
-1.630283336415101758e-02
4.340767343960331703e-01
-3.141417964745127911e-01
-1.734308018313773792e-02
-4.703482840415160737e-01
1.317042184965412643e-01
2.083547591513842667e-01
1.852932007981168694e-01
3.083817125209860066e-01
-5.269613530591855943e-02
-4.632168819558764583e-01
4.452327728488459507e-04
-2.325637456680599291e-01
1.254632484019285177e-01
-2.655560933516994404e-01
7.214396161351638304e-03
1.601587174455303478e-02
1.369998681705403010e-01
1.510757755639696998e-01
-1.055689140532224124e-01
-1.960704707316068829e-01
1.657170905304246045e-01
6.023700831942886691e-02
1.634443096732978995e-01
1.251079458581963733e-01
-4.900068936868330616e-02
-2.874297445480096247e-01
6.387291581307308341e-02
-1.791025434072684303e-02
1.687171809623039601e-02
-1.025485494576268697e-01
4.691366230433677981e-03
4.455799442909651881e-02
-3.889342476486958022e-02
6.788147645708990374e-02
7.181114140553590194e-03
8.404786371794126243e-02
-6.192827507628517053e-03
-1.358648787770026511e-01
-3.346657124540656364e-02
5.532469323241567816e-02
-2.765887440773160955e-01
-1.354866857138748437e-01
1.359789107279714138e-01
-1.414207323492213397e-01
-9.815989419291268336e-02
-2.960916497900141220e-01
4.282489873168665584e-02
-7.342800253665128507e-02
5.266125835051890802e-02
5.371924325177691861e-02
1.523069694510489624e-01
-5.112456871857307128e-02
1.560772463832037771e-01
2.828761020172417678e-02
-2.295181213246634544e-02
-7.404546965629064947e-02
1.239118430194702941e-01
-1.698838491873844170e-01
2.754980554436588930e-02
4.789447287340393711e-01
-3.616813839096206795e-01
1.100976381574133300e-01
5.213514797145468727e-02
7.858160481569147204e-02
-1.613229655243152427e-01
1.692217168331497379e-01
-1.126758711174520589e-01
-8.332191944663219774e-02
5.411419079708160162e-02
-5.471340912377672949e-02
2.384574789681215799e-03
-1.987831613513022511e-01
1.244372427306023321e-01
-5.009046768555096285e-02
-4.017242855892406705e-01
-2.003322688936096385e-01
7.164132236220988048e-02
2.751944190443941438e-02
2.468898484219651523e-01
5.023573657240311130e-01
4.536525721023665358e-01
-1.299471683921339105e-01
-1.476984846838759746e-01
-3.855025712573575264e-02
-6.323393513712942671e-01
3.644693355338333302e-02
-1.787178070264665020e-01
-6.877273437708099346e-02
1.938804567659661027e-01
4.453621459686885053e-01
-1.070206613035128429e+00
3.760743849349659773e-02
-5.718647156886049604e-02
-5.448306098875274062e-01
-1.184493151015479917e+00
-1.995193957376330540e-01
-4.253068056697009713e-02
2.269736292738950278e-01
-1.747560049702554241e-01
2.625296792560471298e-02
-1.064788851074452314e+00
-5.129949100606269463e-02
4.798262626250070495e-01
-1.058079859555707825e-01
1.228010178440039235e+00
3.684100299684933688e-01
-3.579762978502656900e-01
9.054745220459578525e-02
-1.169844395017142699e-02
1.519992340686761589e-01
-9.609958775524474195e-01
1.791143751264830108e-01
-4.937601092578904338e-01
-1.204135662331123013e+00
7.208691697348197369e-01
2.897804618982664504e-01
-2.564923098636943122e-01
3.614588238073528359e-01
-9.182621864069744066e-02
-2.242954617516073501e+00
-5.012100619054513789e-02
3.007888560881737949e-01
-8.063551992792066248e-01
-1.831015728474999771e-01
1.423494904191920041e+00
2.555147551360419933e-01
-9.974618506506076621e-01
8.369539425353592077e-02
7.503029727368196733e-01
-1.404298911117383586e+00
1.555886714473414811e-01
-2.656059234078492981e+00
9.012126392776384498e-02
1.402565179016377339e+00
9.892285419277002667e-01
-6.391340210415283885e-01
2.532579829576885322e-01
8.428165731923502602e-01
-7.479985348877006279e-01
-2.009160454008917240e-01
8.293467242080145851e-01
-1.448771098760718523e+00
5.295583719940646361e-01
-1.214263060766911817e+00
-5.072382047554523377e-01
-1.036861874293497410e+00
-6.128673874561245682e-01
4.119819908365325856e-01
6.182176558613306644e-02
-2.094719082730631399e-01
-8.061121151591823519e-01
8.708796410573807489e-02
1.543151468703969076e-01
8.367046770625446994e-01
-8.690295015098704612e-01
-3.013180841046209091e-01
1.834262056947051800e+00
-3.672540054517517971e-01
-3.620646174476063045e-02
1.112949036386393420e+00
-1.605119388203332775e+00
-6.727701911230090648e-01
-6.354572760963231870e-01
-6.218874373590828064e-01
8.187103504741705118e-01
-1.003861065201890224e+00
-3.089170744214477793e-01
1.736333781590609637e-01
-9.839429735676789024e-01
-5.355106695441384096e-02
1.220629581567583388e+00
-2.661988778445131043e+00
-4.086853015715151138e-01
-6.320175634002720422e-01
-2.842396874670400919e-01
-7.050638221661652272e-03
5.744991373504478860e-01
8.584565701382743663e-01
-2.681860138405902649e-01
1.204165062644015682e+00
3.625011225166039908e-01
-1.145881264144507750e+00
-1.619183295746319251e+00
5.019556605162130980e-01
-4.803637437426667711e-01
-5.415853489028765733e-01
8.309004405344696531e-01
6.892196765200131470e-01
-3.595881536529930700e-01
-4.089482405836774581e-01
1.474069640936181536e+00
-4.935136815474287508e-01
-2.379734634006842875e-02
7.200002249118614417e-02
-6.761163720468534866e-01
-7.173521565129090671e-01
1.392346607691616889e-01
1.280411776720371819e-01
7.322819471518167422e-02
-7.420293198581537908e-01
-3.832340919027012460e-01
4.168504733619270985e-01
-1.410310209189654350e-02
-5.672948547068330100e-02
-1.003974753892486194e-01
-7.814332374484249666e-01
1.984423512441879367e-01
4.198228097107073453e-01
1.690975944082524773e-01
-5.084283848348702950e-01
-5.076276433594216764e-01
-6.032012722410665662e-01
-2.213032400271349176e-01
-5.445371486540738493e-02
1.479276421182322276e-01
6.183294573358496526e-01
-2.932881223361547551e-01
-1.479872787764355546e-01
1.363728084025139786e-01
1.926645893469621229e-01
4.509831375576784374e-01
-8.050353323871002331e-01
-3.956468977807825471e-02
8.861901139225704382e-02
2.312192178347578092e-02
-1.998477933619011715e-01
2.375818249345537370e-01
1.142312120082008137e-01
5.553510143437016128e-02
-6.515949600123432939e-02
-5.193472697393559656e-01
3.457672121966834378e-03
-1.841807194227838285e-01
5.240812179301627266e-02
-3.586265427805308825e-02
2.603001583978905575e-01
4.353909998419345229e-01
-2.615570927033061266e-01
-6.571464319941230925e-02
2.890062569306642293e-01
-3.736991324326717212e-01
-1.756657180507292526e-01
5.123030225409934413e-02
-9.377796950977870805e-02
4.972102391967710838e-03
4.415387182079771322e-01
-6.250917056844176867e-02
4.068499162412970993e-02
3.434721105532347052e-02
-2.728186619447086625e-01
2.466833470615994450e-01
-3.054655490336387613e-01
6.609611980293227107e-02
1.868552008232015338e-01
5.505357230899154963e-02
-2.385638085279642440e-01
-2.524055238663066580e-01
-9.513827911323075037e-02
1.301159846656675945e-01
9.184140740923787960e-02
1.426664799332086619e-01
-3.212888790202255707e-01
-1.581653219034023228e-01
3.492419646930671438e-03
1.235040366162514988e-02
2.412997627213727680e-01
3.463211270017690219e-02
7.920932441168149207e-03
1.104082256740741147e-02
1.366339815804122060e-01
-2.802803037983311873e-02
-2.224975502101505243e-01
8.740958956188457640e-02
4.245512018008783528e-01
5.232559109286583077e-02
1.696991639740628999e-01
-1.812037716808168053e-01
7.414467378268103925e-02
-3.151785372782189149e-02
4.688057569975118133e-01
-5.263279453388190754e-02
-1.056228741193438875e-01
-9.266846014852801738e-03
1.152705980415763970e-01
1.200956452450219203e-01
-1.798500931707137582e-02
-3.544141972131180651e-01
9.634374648531968816e-03
-1.068504768900464807e-01
-9.131425425838292087e-01
5.243136374008239287e-01
-3.532322826498782709e-01
2.169593220503103770e-01
-2.151510400847651827e-01
-6.575641917965233119e-02
-3.177579522359698372e-02
-6.152246981912381368e-02
1.455158674115366035e-01
1.046465869611045985e-01
-1.366147993446615617e-02
2.673202143555338250e-01
-3.108262086560649173e-01
1.158251125602323961e-01
1.401478202593630928e-01
8.956481286588073576e-02
-1.937167881020623594e-01
2.242103666766170067e-01
1.706814456861770711e-03
1.705426579032404133e-01
-2.607682976622427984e-01
-2.078661881469401687e-03
-1.274192002518328808e-03
1.517713628050894326e-01
1.199763698547451074e-01
-7.876684333122893622e-02
1.439481903193207124e-04
1.347564951163643665e-01
-2.447432269955611417e-02
3.372221613992197609e-02
2.914756592322566980e-02
-1.776917261991114300e-02
-8.412527106377784558e-02
2.691589849915757351e-02
-1.124597914953359146e-01
-1.136524804566808322e-01
1.593562796254148484e-01
1.795981393169701346e-01
1.549183106195674564e-01
1.036236178190691748e-01
-2.540334505716149160e-01
2.784782237909576574e-01
-1.337538410673458633e-01
7.308315406014945226e-02
-1.530461168538075345e-01
-1.479518742976873580e-01
-3.610566141736615275e-02
2.596821336085913812e-01
-9.540746531497397431e-02
6.164902492191690758e-02
-5.919299275663067461e-02
7.780453441836848727e-02
1.087672149204377686e-01
2.966261010028150777e-02
1.152821981877934221e-01
-1.259494481710144442e-01
-1.249409010396301395e-01
9.088914573897198534e-02
1.520265958352734759e-01
8.500492338769510825e-02
5.054564303535298286e-01
-6.424836506394472346e-01
8.543753145131603721e-02
-5.901180089491444430e-02
9.255253597976473637e-03
2.871951805590249734e-02
-1.488409451625295754e-01
-1.942088732435484633e-01
8.372334488615984505e-02
3.733522324487768829e-02
1.401116195501929118e-01
2.793043853671064447e-01
3.366438370223637927e-02
-2.018373724321725071e-01
1.870077956914703854e-01
-2.064962989565693741e-01
2.570812785759269414e-01
-1.813724026874212469e-01
2.929911250993968430e-01
-2.274376429903236102e-03
-4.722416709459814621e-01
8.115296854531223181e-02
1.190587647821285122e-01
-4.410733256425455329e-01
1.250045048597298036e-01
-8.247949791544535447e-01
2.859723990047076669e-01
2.650546287416816194e-01
-2.052756527263299158e-01
2.293856709687385198e-01
-2.198491569137678292e-01
7.548506287809232385e-01
-4.637805573136811743e-01
-9.778299249771266188e-01
6.110203753104523350e-02
-2.528786913068213238e+00
-6.854492276127305272e-02
-2.130749155477785761e-01
2.002575053241266723e-01
2.601457260423790108e-01
2.985126205710819658e-01
8.994681265886118882e-02
-3.450239413865234805e-01
-2.245526360128137777e-01
1.984398939565706621e-01
-2.386256740631377049e+00
-3.062536311701277714e-01
3.898687325837755374e-02
6.480790185024056793e-01
-7.762542148914639561e-01
9.527556141994508732e-01
4.037979886217043513e-01
4.004154465580259115e-01
-1.322765986177979747e-01
-4.038440176733132381e-01
-1.054549011091002707e-02
-7.915558902635873029e-01
-1.570178877919582716e-01
-6.481607109504603503e-01
-1.341612819904112186e+00
3.619868404765355652e-01
-8.196709739422154417e-01
1.579444046185721540e+00
3.456577194434368727e-01
7.459136117723735859e-01
-1.373227618742715872e-01
-7.501673895947035264e-01
6.854976067839710918e-01
4.386042137444343819e-02
1.478531728905007947e+00
-1.043530333703796442e+00
1.197300301498147146e+00
-1.162206971677119394e-01
-1.636699032886526975e-02
-6.437297176978507007e-01
5.464149309131159649e-04
-1.900175264638521710e-01
-9.758476723139447584e-01
7.950035876088358267e-01
1.023570280458687476e+00
7.313409598823504831e-01
-1.113071374972429001e-02
1.577521943176456887e+00
-1.320108342157997106e+00
3.851503034870192854e-01
1.018334056248687558e+00
5.665453540162692647e-01
-9.311093124821231970e-02
1.427508299427157068e+00
6.889879105699692197e-01
-5.144238336690948321e-02
-1.518178627903088995e-01
-6.958756907983312257e-01
1.242239363428083054e+00
2.651451078372683012e-01
4.269588021375506637e-01
1.217133199503895868e+00
-1.074198976181405918e+00
1.141626161010128870e-01
4.371707858603565700e-02
8.354853403938473921e-02
-2.853781976705633827e-01
-1.360345393013290272e-02
-3.947562753657923307e-01
-7.040921261324329938e-01
-5.307276210957808521e-02
-2.706044393335004239e-01
9.186100910193784053e-01
-1.263148690734442470e+00
1.757856602553991288e-01
5.822979960013501266e-01
-1.557239679845524583e+00
8.326522935417630666e-01
1.018756421781986665e+00
-5.045216597894660593e-01
-1.138089238328894581e-01
-1.204715824451795481e+00
-3.169204937964026358e-01
-1.381115328271688703e-01
-7.712944949372179115e-01
4.990988564312225928e-01
5.892560990625176354e-01
-1.323936591389722528e+00
-6.375170114518410314e-01
-9.149141876351198910e-01
5.480319445024494085e-01
-2.408009298216354233e-01
7.717144414965242116e-02
-2.157412427810717070e-01
3.315655586668077581e-01
4.728043336271412489e-01
-2.594788420936853246e-01
-4.621641439981760136e-01
3.674527042322078274e-01
1.874353527647449058e-01
3.443489236792378061e-01
6.139481017661971851e-01
-3.699619174351949369e-02
-1.923519241919956491e-01
4.784731543901309114e-02
4.049565739786513130e-01
-3.086738438441425925e-01
-4.978818236144159637e-01
2.476228861781346394e-03
2.202271571302076222e-02
-1.726740055216599568e-01
-1.610491994211871170e-01
-2.513733956994905483e-02
1.866710449519737025e-01
-5.643763352848264053e-02
-2.788393390968215146e-01
-4.112465903460570948e-01
-1.608794718223592601e-01
-1.892629000881161927e-01
4.222008321455163193e-02
8.979629710487223304e-02
2.353562803980168150e-01
-3.234772868159027093e-01
-8.298827464117949915e-02
2.354955153324808370e-01
2.160904115570782547e-01
8.221762023530140295e-01
-2.709203463812902557e-01
1.707488083420275957e-02
8.470865437672930875e-02
8.267499907236601497e-02
-2.411776253806383885e-01
-4.330390505448299954e-01
1.984045434009124309e-01
1.310020556782891532e-01
-1.453629880901037286e-01
4.856033306605068156e-01
-1.172452587161468274e-01
-8.373554256261504791e-02
1.717135050700163978e-01
1.749366825214584975e-02
-1.027281241035118975e-01
-1.662676005683116631e-01
1.171997223107867359e-01
2.344450740013624690e-03
5.978974894270765450e-01
-8.041583549434503375e-01
3.305887151335760998e-02
-7.396076240648354061e-02
1.760008578762597142e-01
-4.603879540372023127e-02
3.761456584741238451e-01
6.579601340408827714e-02
-1.687734504511082811e-01
-1.755235376642129419e-02
5.055114108159682040e-02
-3.234981816449383762e-01
-5.777846762971967226e-02
5.679674460933921420e-02
2.320877741842631847e-01
1.486138676610760656e-01
-1.208561718714742939e-01
-1.587930210721255342e-01
1.266279437748158432e-01
6.526546760720863816e-02
-1.929489058480061137e-01
2.164359274493585783e-01
9.299048123014627687e-02
1.204208000946912493e-01
1.507657582771918248e-01
4.312973286336755502e-02
5.664259021422626827e-02
